<?xml version="1.0"?>
<opencv_storage>
<cascade>
  <stageType>BOOST</stageType>
  <featureType>LBP</featureType>
  <height>110</height>
  <width>100</width>
  <stageParams>
    <boostType>GAB</boostType>
    <minHitRate>9.9500000476837158e-001</minHitRate>
    <maxFalseAlarm>5.0000000000000000e-001</maxFalseAlarm>
    <weightTrimRate>9.4999999999999996e-001</weightTrimRate>
    <maxDepth>1</maxDepth>
    <maxWeakCount>100</maxWeakCount></stageParams>
  <featureParams>
    <maxCatCount>256</maxCatCount>
    <featSize>1</featSize></featureParams>
  <stageNum>20</stageNum>
  <stages>
    <!-- stage 0 -->
    <_>
      <maxWeakCount>2</maxWeakCount>
      <stageThreshold>-1.7597268521785736e-001</stageThreshold>
      <weakClassifiers>
        <_>
          <internalNodes>
            0 -1 20 -786450 -5 -268566550 -8388669 -25 -1 -2113812341
            -3159141</internalNodes>
          <leafValues>
            -8.0408161878585815e-001 8.8367730379104614e-001</leafValues></_>
        <_>
          <internalNodes>
            0 -1 65 -78908944 -1328463477 -1819213312 -209075837
            -1062567360 -117243392 119632 -548672866</internalNodes>
          <leafValues>
            -8.9816325902938843e-001 6.2810891866683960e-001</leafValues></_></weakClassifiers></_>
    <!-- stage 1 -->
    <_>
      <maxWeakCount>2</maxWeakCount>
      <stageThreshold>-2.1822187304496765e-001</stageThreshold>
      <weakClassifiers>
        <_>
          <internalNodes>
            0 -1 6 1371788766 -720272975 33756360 -1851735992
            -1954446401 -1087881040 -927991313 -37760113</internalNodes>
          <leafValues>
            -7.9017859697341919e-001 7.4956524372100830e-001</leafValues></_>
        <_>
          <internalNodes>
            0 -1 14 -521481522 272795436 1207963936 1614856452
            1720174795 -360476029 -1408646741 -124003365</internalNodes>
          <leafValues>
            -8.6300981044769287e-001 5.7195669412612915e-001</leafValues></_></weakClassifiers></_>
    <!-- stage 2 -->
    <_>
      <maxWeakCount>2</maxWeakCount>
      <stageThreshold>-2.7615174651145935e-001</stageThreshold>
      <weakClassifiers>
        <_>
          <internalNodes>
            0 -1 32 -804040230 -1861205539 404033554 -652934832
            562098672 -637009782 -2013062932 -15750725</internalNodes>
          <leafValues>
            -7.8431373834609985e-001 6.4552843570709229e-001</leafValues></_>
        <_>
          <internalNodes>
            0 -1 59 1346700803 1407844378 1208059913 -671678458
            -523730294 -939327346 -2013044694 1999577355</internalNodes>
          <leafValues>
            -7.8210359811782837e-001 5.0816196203231812e-001</leafValues></_></weakClassifiers></_>
    <!-- stage 3 -->
    <_>
      <maxWeakCount>4</maxWeakCount>
      <stageThreshold>-1.5151398181915283e+000</stageThreshold>
      <weakClassifiers>
        <_>
          <internalNodes>
            0 -1 15 -175062593 -268429952 814223770 1893879890 806460311
            -113768447 -1576887393 -3169585</internalNodes>
          <leafValues>
            -6.8707484006881714e-001 6.5292096138000488e-001</leafValues></_>
        <_>
          <internalNodes>
            0 -1 40 -778961926 -1047523240 151081104 1544687704
            -2013222486 -1182775159 54559216 -350498161</internalNodes>
          <leafValues>
            -8.6171621084213257e-001 4.5846816897392273e-001</leafValues></_>
        <_>
          <internalNodes>
            0 -1 0 -1571626421 -759070253 1359011933 -1031544816
            -2137447839 1090670721 -1048446565 -808222177</internalNodes>
          <leafValues>
            -7.0184683799743652e-001 5.0858110189437866e-001</leafValues></_>
        <_>
          <internalNodes>
            0 -1 46 -299523 2140839613 -65794 -1686456321 -229906
            -1098981427 -1114154 1597431022</internalNodes>
          <leafValues>
            -6.0449773073196411e-001 6.7850685119628906e-001</leafValues></_></weakClassifiers></_>
    <!-- stage 4 -->
    <_>
      <maxWeakCount>4</maxWeakCount>
      <stageThreshold>-5.3209877014160156e-001</stageThreshold>
      <weakClassifiers>
        <_>
          <internalNodes>
            0 -1 63 -1018143760 452984912 4401 -687816420 -1879045908
            -234225656 -2147426132 -888604276</internalNodes>
          <leafValues>
            -8.1764703989028931e-001 5.1976573467254639e-001</leafValues></_>
        <_>
          <internalNodes>
            0 -1 42 -615275772 39354377 -2147483247 -906674133
            -2140503117 -897023986 134332586 -1683292033</internalNodes>
          <leafValues>
            -7.9370021820068359e-001 4.1373181343078613e-001</leafValues></_>
        <_>
          <internalNodes>
            0 -1 12 -925711412 -754937212 709 -1861697468 -1610504029
            33587200 -1996455807 1093501062</internalNodes>
          <leafValues>
            -6.5159416198730469e-001 5.1583921909332275e-001</leafValues></_>
        <_>
          <internalNodes>
            0 -1 77 1900243151 1090781184 16810384 19 -2096583797
            -1979154430 1613435024 1365968959</internalNodes>
          <leafValues>
            -6.4402276277542114e-001 5.5364876985549927e-001</leafValues></_></weakClassifiers></_>
    <!-- stage 5 -->
    <_>
      <maxWeakCount>4</maxWeakCount>
      <stageThreshold>-3.3061492443084717e-001</stageThreshold>
      <weakClassifiers>
        <_>
          <internalNodes>
            0 -1 9 -794693182 1360040073 290459905 1766949137
            -1471773713 -2139029503 -1039540037 -451677695</internalNodes>
          <leafValues>
            -7.0798897743225098e-001 5.0606060028076172e-001</leafValues></_>
        <_>
          <internalNodes>
            0 -1 61 -872361740 352391188 16793684 1480851472 -2012708722
            -1979613032 -2063486956 -149190261</internalNodes>
          <leafValues>
            -7.8447490930557251e-001 4.0598943829536438e-001</leafValues></_>
        <_>
          <internalNodes>
            0 -1 17 -1962162750 62947712 -2147483549 -645574648 254091
            -1996455936 1107574949 -1033654080</internalNodes>
          <leafValues>
            -6.3166695833206177e-001 5.1538109779357910e-001</leafValues></_>
        <_>
          <internalNodes>
            0 -1 38 1359724739 1930625025 32784 1929531395 213001
            -1744830462 1342242953 -2096447341</internalNodes>
          <leafValues>
            -5.4399645328521729e-001 6.4236187934875488e-001</leafValues></_></weakClassifiers></_>
    <!-- stage 6 -->
    <_>
      <maxWeakCount>4</maxWeakCount>
      <stageThreshold>-1.1219273805618286e+000</stageThreshold>
      <weakClassifiers>
        <_>
          <internalNodes>
            0 -1 22 -789584129 1919877119 -1699021058 1883111159
            1728053246 -595722241 -50462721 -109584641</internalNodes>
          <leafValues>
            -4.6313798427581787e-001 6.5182185173034668e-001</leafValues></_>
        <_>
          <internalNodes>
            0 -1 82 -781192224 357138753 0 -2146629630 -649475867
            810156034 704991489 -527711581</internalNodes>
          <leafValues>
            -7.0535284280776978e-001 4.6918228268623352e-001</leafValues></_>
        <_>
          <internalNodes>
            0 -1 36 2131806733 -683442169 -1073725294 1342847170
            1111556616 -2130337790 -1459609366 -1789441445</internalNodes>
          <leafValues>
            -6.1149823665618896e-001 5.5054038763046265e-001</leafValues></_>
        <_>
          <internalNodes>
            0 -1 89 -352495073 -134389810 -620756994 -768410002
            1744481596 -25198755 -734077218 -871058198</internalNodes>
          <leafValues>
            -5.1647347211837769e-001 6.5258848667144775e-001</leafValues></_></weakClassifiers></_>
    <!-- stage 7 -->
    <_>
      <maxWeakCount>5</maxWeakCount>
      <stageThreshold>-7.5313740968704224e-001</stageThreshold>
      <weakClassifiers>
        <_>
          <internalNodes>
            0 -1 58 -578751532 1540423936 266371 -183463911 1225818248
            -1451192188 -1151463272 -115691480</internalNodes>
          <leafValues>
            -7.0689654350280762e-001 4.7851851582527161e-001</leafValues></_>
        <_>
          <internalNodes>
            0 -1 10 -351739525 -805220219 1630561105 -1560215502
            -2146335949 -989715455 -1073695965 -922508517</internalNodes>
          <leafValues>
            -5.4258614778518677e-001 5.7297146320343018e-001</leafValues></_>
        <_>
          <internalNodes>
            0 -1 21 -267135774 1511227403 -1073741548 808476674
            -1870544614 -661059584 -1341870001 1917581963</internalNodes>
          <leafValues>
            -5.9678518772125244e-001 5.0519019365310669e-001</leafValues></_>
        <_>
          <internalNodes>
            0 -1 90 -285221233 -8683650 -457179394 1658896318 -143343800
            2105016180 -1294116900 -531435530</internalNodes>
          <leafValues>
            -5.2212160825729370e-001 6.3772821426391602e-001</leafValues></_>
        <_>
          <internalNodes>
            0 -1 66 1344460123 -2143022976 34833 -686806647 -2013224390
            -939491192 142737561 -879059576</internalNodes>
          <leafValues>
            -6.4657312631607056e-001 5.2105933427810669e-001</leafValues></_></weakClassifiers></_>
    <!-- stage 8 -->
    <_>
      <maxWeakCount>5</maxWeakCount>
      <stageThreshold>-6.6128277778625488e-001</stageThreshold>
      <weakClassifiers>
        <_>
          <internalNodes>
            0 -1 53 1104900641 1763262481 -1073739719 1083261323
            -528244421 -2147483626 -2147368917 -30416885</internalNodes>
          <leafValues>
            -6.0583943128585815e-001 5.3267973661422729e-001</leafValues></_>
        <_>
          <internalNodes>
            0 -1 41 1359110302 -788299761 8392713 806486047 12681352
            -486539254 -167523701 -217980405</internalNodes>
          <leafValues>
            -5.6987279653549194e-001 5.2933257818222046e-001</leafValues></_>
        <_>
          <internalNodes>
            0 -1 2 -781717486 -850489086 -1056964574 -1793785768
            -2146858621 -1056309120 1095032832 -1034823069</internalNodes>
          <leafValues>
            -5.5782842636108398e-001 5.6642293930053711e-001</leafValues></_>
        <_>
          <internalNodes>
            0 -1 79 -1055784561 -1073708544 66049 1359200320 176205952
            134283272 10518665 -1847594715</internalNodes>
          <leafValues>
            -5.7643145322799683e-001 5.7642668485641479e-001</leafValues></_>
        <_>
          <internalNodes>
            0 -1 24 -1010442197 -49560305 1075135771 705888384
            -2105339766 1660944400 -1609989630 1896072075</internalNodes>
          <leafValues>
            -5.8903527259826660e-001 5.6684070825576782e-001</leafValues></_></weakClassifiers></_>
    <!-- stage 9 -->
    <_>
      <maxWeakCount>6</maxWeakCount>
      <stageThreshold>-3.6371779441833496e-001</stageThreshold>
      <weakClassifiers>
        <_>
          <internalNodes>
            0 -1 31 408322426 -1253506282 268701720 1480612498
            -2146662246 -905805816 -1694170998 -16281333</internalNodes>
          <leafValues>
            -7.7198696136474609e-001 4.3854749202728271e-001</leafValues></_>
        <_>
          <internalNodes>
            0 -1 85 2104747698 -41945293 -411568847 -940048451
            1602221459 901234519 -537398974 -809904133</internalNodes>
          <leafValues>
            -5.0296515226364136e-001 6.0031867027282715e-001</leafValues></_>
        <_>
          <internalNodes>
            0 -1 69 1518983443 352387715 1101872 -1256161279 201582776
            -938964984 -1463286606 -886075237</internalNodes>
          <leafValues>
            -5.5448490381240845e-001 5.4314750432968140e-001</leafValues></_>
        <_>
          <internalNodes>
            0 -1 78 -335376363 1896923152 283020 1409355785 -1878441832
            -1165098976 33835 -329217806</internalNodes>
          <leafValues>
            -5.2444648742675781e-001 6.3392865657806396e-001</leafValues></_>
        <_>
          <internalNodes>
            0 -1 27 -918030921 -1593602038 1118352 -800552680 134383755
            -2146941823 42017456 1969275552</internalNodes>
          <leafValues>
            -6.5869092941284180e-001 4.9082943797111511e-001</leafValues></_>
        <_>
          <internalNodes>
            0 -1 1 -1050676550 -1415282658 268484695 1369493530
            -2105294159 1275068546 17350656 1413595525</internalNodes>
          <leafValues>
            -7.1043473482131958e-001 5.1763468980789185e-001</leafValues></_></weakClassifiers></_>
    <!-- stage 10 -->
    <_>
      <maxWeakCount>5</maxWeakCount>
      <stageThreshold>-7.7045816183090210e-001</stageThreshold>
      <weakClassifiers>
        <_>
          <internalNodes>
            0 -1 34 -584015846 1368708880 268697699 1432355072
            1610756184 -1996488568 2064 -884752310</internalNodes>
          <leafValues>
            -5.8793967962265015e-001 4.9759998917579651e-001</leafValues></_>
        <_>
          <internalNodes>
            0 -1 75 -754855437 -1717370879 1073836113 940113929
            -2013247282 -1912520179 -1593818382 831754763</internalNodes>
          <leafValues>
            -5.6959724426269531e-001 5.1043063402175903e-001</leafValues></_>
        <_>
          <internalNodes>
            0 -1 11 1120855978 -167841809 -111149331 1206838994
            -2030260786 -335544321 920077407 -851196802</internalNodes>
          <leafValues>
            -5.0555646419525146e-001 5.8514451980590820e-001</leafValues></_>
        <_>
          <internalNodes>
            0 -1 45 612438022 1950417103 536870929 -782663475 12636315
            -1867448311 -1875195765 -383811045</internalNodes>
          <leafValues>
            -7.0653682947158813e-001 4.9090206623077393e-001</leafValues></_>
        <_>
          <internalNodes>
            0 -1 13 -1019352113 -500448254 150 -788451200 66563
            1108574208 -536622880 -514358912</internalNodes>
          <leafValues>
            -5.7155668735504150e-001 5.6576997041702271e-001</leafValues></_></weakClassifiers></_>
    <!-- stage 11 -->
    <_>
      <maxWeakCount>6</maxWeakCount>
      <stageThreshold>-7.9774665832519531e-001</stageThreshold>
      <weakClassifiers>
        <_>
          <internalNodes>
            0 -1 47 -35715 2139040767 -1 1719623165 1610514012 -32897
            -35725334 -281378817</internalNodes>
          <leafValues>
            -3.6967632174491882e-001 6.7431193590164185e-001</leafValues></_>
        <_>
          <internalNodes>
            0 -1 80 -1018834957 -2123661312 167776513 -787283455
            1787970187 671252504 327811105 1430897839</internalNodes>
          <leafValues>
            -6.0687601566314697e-001 4.5168378949165344e-001</leafValues></_>
        <_>
          <internalNodes>
            0 -1 67 -587260325 2133965994 -273682817 -143426217
            -1110015017 -753801 796324059 -1978602406</internalNodes>
          <leafValues>
            -4.1066589951515198e-001 6.8033832311630249e-001</leafValues></_>
        <_>
          <internalNodes>
            0 -1 87 -45900005 1360249033 1157761602 -268300283 71541120
            545783808 713064710 705684739</internalNodes>
          <leafValues>
            -6.0637933015823364e-001 4.7476556897163391e-001</leafValues></_>
        <_>
          <internalNodes>
            0 -1 52 1570393815 2136428536 -16843015 -5300547 -842216228
            -541172481 -23111719 1579093130</internalNodes>
          <leafValues>
            -4.4878238439559937e-001 6.5765893459320068e-001</leafValues></_>
        <_>
          <internalNodes>
            0 -1 76 -378610599 2066495245 -22529 -31392771 -268593256
            -16953345 1976614874 2063642227</internalNodes>
          <leafValues>
            -4.9507138133049011e-001 6.6167318820953369e-001</leafValues></_></weakClassifiers></_>
    <!-- stage 12 -->
    <_>
      <maxWeakCount>6</maxWeakCount>
      <stageThreshold>-5.3174531459808350e-001</stageThreshold>
      <weakClassifiers>
        <_>
          <internalNodes>
            0 -1 43 -250609124 1527972884 1091588561 -587202476
            -998079618 -266207102 -1576957780 -1356922134</internalNodes>
          <leafValues>
            -5.6937801837921143e-001 5.2066117525100708e-001</leafValues></_>
        <_>
          <internalNodes>
            0 -1 8 1659412847 -130825453 624951577 -989773744
            -1476291977 -1072660448 -535240252 1217596915</internalNodes>
          <leafValues>
            -6.7232996225357056e-001 4.2036426067352295e-001</leafValues></_>
        <_>
          <internalNodes>
            0 -1 4 -897062853 -536707070 19169288 -117252094 1073905803
            -998111230 1477074979 -733640702</internalNodes>
          <leafValues>
            -4.7595489025115967e-001 5.9045219421386719e-001</leafValues></_>
        <_>
          <internalNodes>
            0 -1 74 -1878906990 -1736439799 33652801 -385056507
            1208486282 167772303 34157505 1149895043</internalNodes>
          <leafValues>
            -6.7197835445404053e-001 4.7659432888031006e-001</leafValues></_>
        <_>
          <internalNodes>
            0 -1 62 1348147619 -1723957132 -2147483509 805605405
            1074135146 -649259006 201984156 -633159027</internalNodes>
          <leafValues>
            -6.5859800577163696e-001 4.3378537893295288e-001</leafValues></_>
        <_>
          <internalNodes>
            0 -1 81 1665635075 -812924787 -1073739767 -1794047989
            1082802177 -1933475838 537116698 1913495561</internalNodes>
          <leafValues>
            -7.3264658451080322e-001 4.2677760124206543e-001</leafValues></_></weakClassifiers></_>
    <!-- stage 13 -->
    <_>
      <maxWeakCount>5</maxWeakCount>
      <stageThreshold>-5.7694870233535767e-001</stageThreshold>
      <weakClassifiers>
        <_>
          <internalNodes>
            0 -1 51 1507712989 -269901935 2147483647 -1625326595 -229650
            -129 2142908478 -31269121</internalNodes>
          <leafValues>
            -3.9682540297508240e-001 6.6228067874908447e-001</leafValues></_>
        <_>
          <internalNodes>
            0 -1 29 -966892825 268501011 268451914 437420619 -725446464
            1367343136 -788031416 -719878350</internalNodes>
          <leafValues>
            -5.3143161535263062e-001 5.2084022760391235e-001</leafValues></_>
        <_>
          <internalNodes>
            0 -1 56 -2046643236 -1055846016 50495765 1627914267 4497594
            -499416952 553910992 -908358773</internalNodes>
          <leafValues>
            -5.8466368913650513e-001 4.6465757489204407e-001</leafValues></_>
        <_>
          <internalNodes>
            0 -1 88 -134354197 2063562555 -360607 -432554130 2147468832
            -153667713 -290128280 -531310702</internalNodes>
          <leafValues>
            -4.9502381682395935e-001 5.9828257560729980e-001</leafValues></_>
        <_>
          <internalNodes>
            0 -1 35 -1861220836 -506359023 553742337 -192872357
            -532619128 1074856001 -2143280446 -1952841208</internalNodes>
          <leafValues>
            -6.7743158340454102e-001 4.3880537152290344e-001</leafValues></_></weakClassifiers></_>
    <!-- stage 14 -->
    <_>
      <maxWeakCount>4</maxWeakCount>
      <stageThreshold>-3.1035068631172180e-001</stageThreshold>
      <weakClassifiers>
        <_>
          <internalNodes>
            0 -1 64 -1022041900 555813507 -2126446399 -936358848
            -2004057432 -2130149376 -1974675234 -1391818501</internalNodes>
          <leafValues>
            -6.1273211240768433e-001 4.7678017616271973e-001</leafValues></_>
        <_>
          <internalNodes>
            0 -1 5 -229153989 1342443913 402731026 1619066897
            -1962344447 1015578880 -1027506047 -757620693</internalNodes>
          <leafValues>
            -5.8803343772888184e-001 4.9650886654853821e-001</leafValues></_>
        <_>
          <internalNodes>
            0 -1 44 348901966 335564816 268566737 33624090 -1602060278
            2047377418 50432162 1531133978</internalNodes>
          <leafValues>
            -7.0462453365325928e-001 4.1040903329849243e-001</leafValues></_>
        <_>
          <internalNodes>
            0 -1 70 491890487 -771751936 -2063597029 561840136
            -2104883019 -1739587444 1614807177 -1658140439</internalNodes>
          <leafValues>
            -5.7901519536972046e-001 5.4227250814437866e-001</leafValues></_></weakClassifiers></_>
    <!-- stage 15 -->
    <_>
      <maxWeakCount>6</maxWeakCount>
      <stageThreshold>-9.4699198007583618e-001</stageThreshold>
      <weakClassifiers>
        <_>
          <internalNodes>
            0 -1 60 -546308272 -1105273083 -1073807375 -75422834
            265195192 -234552818 1331082994 1578082187</internalNodes>
          <leafValues>
            -4.5064377784729004e-001 5.1526033878326416e-001</leafValues></_>
        <_>
          <internalNodes>
            0 -1 48 -839009101 536824959 1862237951 1534273231 503242708
            -163850 -196612 -1089832961</internalNodes>
          <leafValues>
            -4.3472349643707275e-001 6.0068684816360474e-001</leafValues></_>
        <_>
          <internalNodes>
            0 -1 7 -515062841 -879591230 1342177745 353388880 547922131
            -1416953725 8782213 1363366017</internalNodes>
          <leafValues>
            -5.5925375223159790e-001 5.0173389911651611e-001</leafValues></_>
        <_>
          <internalNodes>
            0 -1 83 -79770558 -160276940 -134217729 -1086652585
            894825456 -9322625 -278183972 -268333381</internalNodes>
          <leafValues>
            -4.7511437535285950e-001 5.9580022096633911e-001</leafValues></_>
        <_>
          <internalNodes>
            0 -1 50 -723043 -822280322 -196611 -7766280 -18874499
            -10616834 -671162633 256499419</internalNodes>
          <leafValues>
            -4.9869388341903687e-001 6.0485428571701050e-001</leafValues></_>
        <_>
          <internalNodes>
            0 -1 25 -782565317 1977327618 -1878912940 270041216
            805404704 -1308458984 151691463 810777734</internalNodes>
          <leafValues>
            -6.3347601890563965e-001 5.0553321838378906e-001</leafValues></_></weakClassifiers></_>
    <!-- stage 16 -->
    <_>
      <maxWeakCount>6</maxWeakCount>
      <stageThreshold>-1.0659977197647095e+000</stageThreshold>
      <weakClassifiers>
        <_>
          <internalNodes>
            0 -1 68 1154599369 65792 1073842354 -2055143000 134775979
            142672000 581603651 -1022901697</internalNodes>
          <leafValues>
            -5.0118762254714966e-001 4.7840532660484314e-001</leafValues></_>
        <_>
          <internalNodes>
            0 -1 3 -1050943023 -1052721022 20 1694552064 1208721605
            -905926656 1107411460 -786307020</internalNodes>
          <leafValues>
            -5.8109658956527710e-001 4.4137689471244812e-001</leafValues></_>
        <_>
          <internalNodes>
            0 -1 37 -1171251113 -1727954935 85034369 486646017
            1283531232 419561472 -1052645233 1032032987</internalNodes>
          <leafValues>
            -5.4317194223403931e-001 4.9425184726715088e-001</leafValues></_>
        <_>
          <internalNodes>
            0 -1 30 -16832927 448228599 754904820 1352367870 -554209466
            1820295013 -1242038658 189308915</internalNodes>
          <leafValues>
            -5.2051627635955811e-001 5.4028075933456421e-001</leafValues></_>
        <_>
          <internalNodes>
            0 -1 72 -755452021 1107161066 1316647594 1894449142
            1592968425 -160433699 1970795686 -2006010973</internalNodes>
          <leafValues>
            -4.6897837519645691e-001 6.1133474111557007e-001</leafValues></_>
        <_>
          <internalNodes>
            0 -1 84 -1069060059 124518800 -1862135382 -938393471
            1229006856 150994952 847294664 -509902645</internalNodes>
          <leafValues>
            -5.3431749343872070e-001 5.7693302631378174e-001</leafValues></_></weakClassifiers></_>
    <!-- stage 17 -->
    <_>
      <maxWeakCount>5</maxWeakCount>
      <stageThreshold>-5.9127229452133179e-001</stageThreshold>
      <weakClassifiers>
        <_>
          <internalNodes>
            0 -1 39 -1336717226 -754765822 67108882 -1877749754
            -1073704694 1219168256 8423811 1124715258</internalNodes>
          <leafValues>
            -6.0857909917831421e-001 4.6769231557846069e-001</leafValues></_>
        <_>
          <internalNodes>
            0 -1 33 -2086076425 -1782810646 -1073842179 2012969877
            1140834290 -805306374 -571475993 -839281420</internalNodes>
          <leafValues>
            -4.2089870572090149e-001 6.0745620727539063e-001</leafValues></_>
        <_>
          <internalNodes>
            0 -1 73 1892144095 1430323297 -1794866863 1761804297
            -2013093110 -1602223872 1511587991 39561187</internalNodes>
          <leafValues>
            -5.3562712669372559e-001 5.3545802831649780e-001</leafValues></_>
        <_>
          <internalNodes>
            0 -1 16 -915938054 -34017282 -403771681 -1778643714
            -956379729 -838943012 -805476914 -979380137</internalNodes>
          <leafValues>
            -4.7505182027816772e-001 6.2009859085083008e-001</leafValues></_>
        <_>
          <internalNodes>
            0 -1 71 1699802621 1124106948 67593 -778616564 -1736441831
            705364480 554017035 -833164375</internalNodes>
          <leafValues>
            -6.5574187040328979e-001 4.8938605189323425e-001</leafValues></_></weakClassifiers></_>
    <!-- stage 18 -->
    <_>
      <maxWeakCount>4</maxWeakCount>
      <stageThreshold>-3.3721503615379333e-001</stageThreshold>
      <weakClassifiers>
        <_>
          <internalNodes>
            0 -1 26 -2076138168 1376813339 -804175814 -515833390
            -267951855 -1870659520 -1068252957 -918445685</internalNodes>
          <leafValues>
            -7.6727271080017090e-001 3.8502672314643860e-001</leafValues></_>
        <_>
          <internalNodes>
            0 -1 55 1363391627 823247384 67125265 -245288878 289964160
            1515747868 -1876882805 252663939</internalNodes>
          <leafValues>
            -4.5121496915817261e-001 5.6904518604278564e-001</leafValues></_>
        <_>
          <internalNodes>
            0 -1 23 -936914509 -436133328 402702800 -184524760
            -1342135878 -394231638 12628097 25805008</internalNodes>
          <leafValues>
            -5.6396692991256714e-001 4.6267774701118469e-001</leafValues></_>
        <_>
          <internalNodes>
            0 -1 54 -775869673 -779484651 1342247165 269385872 1614762
            -1341063143 570426240 1297843085</internalNodes>
          <leafValues>
            -6.0166519880294800e-001 4.6689856052398682e-001</leafValues></_></weakClassifiers></_>
    <!-- stage 19 -->
    <_>
      <maxWeakCount>7</maxWeakCount>
      <stageThreshold>-7.7869307994842529e-001</stageThreshold>
      <weakClassifiers>
        <_>
          <internalNodes>
            0 -1 49 -33914882 -1073840260 -1141440515 -10420628 -2162690
            -76 1878970365 -551813649</internalNodes>
          <leafValues>
            -4.2352941632270813e-001 5.7115012407302856e-001</leafValues></_>
        <_>
          <internalNodes>
            0 -1 19 -437780545 -156303362 -151060747 1405673084
            -813793282 -564756530 -704874908 -798497068</internalNodes>
          <leafValues>
            -4.1031679511070251e-001 6.2454110383987427e-001</leafValues></_>
        <_>
          <internalNodes>
            0 -1 18 620881511 1627410817 -1828581055 -1056636928
            -1308384749 -2080333823 -535695016 -619994213</internalNodes>
          <leafValues>
            -5.3651857376098633e-001 5.0174057483673096e-001</leafValues></_>
        <_>
          <internalNodes>
            0 -1 91 -729573101 419508999 17137824 -1476231076
            -1861566208 1 -2004350080 1610660480</internalNodes>
          <leafValues>
            -7.1635150909423828e-001 3.8746732473373413e-001</leafValues></_>
        <_>
          <internalNodes>
            0 -1 28 25702720 2031354000 1073829169 521163010 -201160576
            -2004844416 -1593683829 287375893</internalNodes>
          <leafValues>
            -5.9405910968780518e-001 5.0086355209350586e-001</leafValues></_>
        <_>
          <internalNodes>
            0 -1 57 -653774300 -1020056559 286136349 -956202732
            -804983304 -610238319 -922615486 -654249452</internalNodes>
          <leafValues>
            -5.7368445396423340e-001 5.1427656412124634e-001</leafValues></_>
        <_>
          <internalNodes>
            0 -1 86 722336722 -1995829102 69888 269025313 -1606319725
            -662044672 33644613 1401176215</internalNodes>
          <leafValues>
            -7.1611350774765015e-001 4.4622945785522461e-001</leafValues></_></weakClassifiers></_></stages>
  <features>
    <_>
      <rect>
        0 3 26 31</rect></_>
    <_>
      <rect>
        0 13 5 6</rect></_>
    <_>
      <rect>
        0 16 4 4</rect></_>
    <_>
      <rect>
        0 18 4 7</rect></_>
    <_>
      <rect>
        0 24 4 12</rect></_>
    <_>
      <rect>
        0 56 13 14</rect></_>
    <_>
      <rect>
        0 71 33 13</rect></_>
    <_>
      <rect>
        1 1 9 7</rect></_>
    <_>
      <rect>
        1 13 26 27</rect></_>
    <_>
      <rect>
        1 39 32 22</rect></_>
    <_>
      <rect>
        2 5 25 31</rect></_>
    <_>
      <rect>
        2 7 19 15</rect></_>
    <_>
      <rect>
        3 3 11 18</rect></_>
    <_>
      <rect>
        3 37 2 3</rect></_>
    <_>
      <rect>
        3 50 16 18</rect></_>
    <_>
      <rect>
        3 73 22 12</rect></_>
    <_>
      <rect>
        4 3 13 17</rect></_>
    <_>
      <rect>
        5 0 9 6</rect></_>
    <_>
      <rect>
        5 4 20 30</rect></_>
    <_>
      <rect>
        5 30 3 7</rect></_>
    <_>
      <rect>
        6 48 31 20</rect></_>
    <_>
      <rect>
        6 58 8 11</rect></_>
    <_>
      <rect>
        6 58 10 12</rect></_>
    <_>
      <rect>
        9 8 3 2</rect></_>
    <_>
      <rect>
        9 78 8 7</rect></_>
    <_>
      <rect>
        10 73 5 7</rect></_>
    <_>
      <rect>
        11 20 22 30</rect></_>
    <_>
      <rect>
        11 32 2 2</rect></_>
    <_>
      <rect>
        15 1 19 6</rect></_>
    <_>
      <rect>
        15 59 4 10</rect></_>
    <_>
      <rect>
        16 64 3 5</rect></_>
    <_>
      <rect>
        16 89 18 7</rect></_>
    <_>
      <rect>
        17 86 26 8</rect></_>
    <_>
      <rect>
        18 2 5 4</rect></_>
    <_>
      <rect>
        20 62 7 14</rect></_>
    <_>
      <rect>
        21 8 26 17</rect></_>
    <_>
      <rect>
        23 86 6 5</rect></_>
    <_>
      <rect>
        24 38 13 16</rect></_>
    <_>
      <rect>
        24 83 4 6</rect></_>
    <_>
      <rect>
        24 90 8 4</rect></_>
    <_>
      <rect>
        25 92 19 6</rect></_>
    <_>
      <rect>
        26 91 6 4</rect></_>
    <_>
      <rect>
        27 35 24 24</rect></_>
    <_>
      <rect>
        28 89 14 7</rect></_>
    <_>
      <rect>
        28 96 7 3</rect></_>
    <_>
      <rect>
        30 15 23 27</rect></_>
    <_>
      <rect>
        31 86 5 7</rect></_>
    <_>
      <rect>
        32 93 2 3</rect></_>
    <_>
      <rect>
        32 93 3 4</rect></_>
    <_>
      <rect>
        32 95 10 5</rect></_>
    <_>
      <rect>
        33 65 13 14</rect></_>
    <_>
      <rect>
        33 92 5 6</rect></_>
    <_>
      <rect>
        36 88 8 5</rect></_>
    <_>
      <rect>
        37 11 21 30</rect></_>
    <_>
      <rect>
        38 101 6 2</rect></_>
    <_>
      <rect>
        39 88 8 5</rect></_>
    <_>
      <rect>
        39 91 11 6</rect></_>
    <_>
      <rect>
        40 11 12 7</rect></_>
    <_>
      <rect>
        40 95 6 5</rect></_>
    <_>
      <rect>
        41 2 19 28</rect></_>
    <_>
      <rect>
        41 89 10 5</rect></_>
    <_>
      <rect>
        41 99 10 3</rect></_>
    <_>
      <rect>
        41 100 3 2</rect></_>
    <_>
      <rect>
        44 95 6 5</rect></_>
    <_>
      <rect>
        46 51 13 19</rect></_>
    <_>
      <rect>
        48 66 16 13</rect></_>
    <_>
      <rect>
        49 98 5 4</rect></_>
    <_>
      <rect>
        54 0 11 6</rect></_>
    <_>
      <rect>
        54 84 13 7</rect></_>
    <_>
      <rect>
        54 91 8 4</rect></_>
    <_>
      <rect>
        54 94 4 4</rect></_>
    <_>
      <rect>
        55 92 4 6</rect></_>
    <_>
      <rect>
        56 41 5 3</rect></_>
    <_>
      <rect>
        58 72 1 1</rect></_>
    <_>
      <rect>
        58 93 8 4</rect></_>
    <_>
      <rect>
        60 91 8 4</rect></_>
    <_>
      <rect>
        61 1 12 12</rect></_>
    <_>
      <rect>
        61 73 13 12</rect></_>
    <_>
      <rect>
        65 0 11 9</rect></_>
    <_>
      <rect>
        66 86 4 7</rect></_>
    <_>
      <rect>
        66 88 7 5</rect></_>
    <_>
      <rect>
        68 31 10 18</rect></_>
    <_>
      <rect>
        68 62 9 12</rect></_>
    <_>
      <rect>
        69 0 9 13</rect></_>
    <_>
      <rect>
        69 98 8 4</rect></_>
    <_>
      <rect>
        70 35 10 21</rect></_>
    <_>
      <rect>
        73 63 7 10</rect></_>
    <_>
      <rect>
        75 31 8 15</rect></_>
    <_>
      <rect>
        86 33 4 7</rect></_>
    <_>
      <rect>
        88 9 3 5</rect></_>
    <_>
      <rect>
        91 20 3 4</rect></_>
    <_>
      <rect>
        91 32 2 3</rect></_></features></cascade>
</opencv_storage>
