<?xml version="1.0"?>
<opencv_storage>
<cascade>
  <stageType>BOOST</stageType>
  <featureType>LBP</featureType>
  <height>55</height>
  <width>50</width>
  <stageParams>
    <boostType>GAB</boostType>
    <minHitRate>9.9500000476837158e-001</minHitRate>
    <maxFalseAlarm>5.0000000000000000e-001</maxFalseAlarm>
    <weightTrimRate>9.4999999999999996e-001</weightTrimRate>
    <maxDepth>1</maxDepth>
    <maxWeakCount>100</maxWeakCount></stageParams>
  <featureParams>
    <maxCatCount>256</maxCatCount>
    <featSize>1</featSize></featureParams>
  <stageNum>21</stageNum>
  <stages>
    <!-- stage 0 -->
    <_>
      <maxWeakCount>3</maxWeakCount>
      <stageThreshold>-9.2663002014160156e-001</stageThreshold>
      <weakClassifiers>
        <_>
          <internalNodes>
            0 -1 17 -715194390 -524299 -268435510 -181 -17 -33554433
            -1065186897 -1</internalNodes>
          <leafValues>
            -8.1210857629776001e-001 8.5661762952804565e-001</leafValues></_>
        <_>
          <internalNodes>
            0 -1 78 -682241635 -715554539 293717392 -41316285
            -2138862965 1702920195 1476399680 1440480235</internalNodes>
          <leafValues>
            -7.1953672170639038e-001 7.3153442144393921e-001</leafValues></_>
        <_>
          <internalNodes>
            0 -1 36 -866988352 1140908162 -2138533886 5226499
            -1031287927 -847019904 -146164342 -675284821</internalNodes>
          <leafValues>
            -8.2381623983383179e-001 6.0501527786254883e-001</leafValues></_></weakClassifiers></_>
    <!-- stage 1 -->
    <_>
      <maxWeakCount>2</maxWeakCount>
      <stageThreshold>-1.7974004149436951e-001</stageThreshold>
      <weakClassifiers>
        <_>
          <internalNodes>
            0 -1 14 -919668786 -105348733 1622916 -150929269 -1165922065
            -1836498559 144355519 -1146385781</internalNodes>
          <leafValues>
            -8.2589286565780640e-001 7.7739131450653076e-001</leafValues></_>
        <_>
          <internalNodes>
            0 -1 41 -687671818 -548776464 1358975056 1547698564
            -939203637 -92106584 -2096373052 -50083686</internalNodes>
          <leafValues>
            -8.3394092321395874e-001 6.4615279436111450e-001</leafValues></_></weakClassifiers></_>
    <!-- stage 2 -->
    <_>
      <maxWeakCount>4</maxWeakCount>
      <stageThreshold>-2.6877906918525696e-001</stageThreshold>
      <weakClassifiers>
        <_>
          <internalNodes>
            0 -1 18 -607135778 2061175115 -2130640862 -150244073
            -2096250467 -654114678 -2147227253 -73412209</internalNodes>
          <leafValues>
            -7.7367204427719116e-001 6.9830507040023804e-001</leafValues></_>
        <_>
          <internalNodes>
            0 -1 12 -930961818 -1072365551 -788463551 1076068354
            -1941722613 -402456440 -1065170721 -824443481</internalNodes>
          <leafValues>
            -7.7450728416442871e-001 5.7871657609939575e-001</leafValues></_>
        <_>
          <internalNodes>
            0 -1 96 -33554441 -822083593 -16777616 -134744329 2003690820
            -705167362 1433782256 -713556033</internalNodes>
          <leafValues>
            -6.7932087182998657e-001 7.0312225818634033e-001</leafValues></_>
        <_>
          <internalNodes>
            0 -1 29 -85274435 -66654182 -1845049834 -1039760366
            -904863479 -1743323133 -939480406 -555761269</internalNodes>
          <leafValues>
            -7.5219577550888062e-001 6.0549730062484741e-001</leafValues></_></weakClassifiers></_>
    <!-- stage 3 -->
    <_>
      <maxWeakCount>4</maxWeakCount>
      <stageThreshold>-3.8005200028419495e-001</stageThreshold>
      <weakClassifiers>
        <_>
          <internalNodes>
            0 -1 52 -1793065986 -641657344 1157867256 -15498853
            -2049722244 -1165459323 565376 -808727605</internalNodes>
          <leafValues>
            -7.8477692604064941e-001 5.8566975593566895e-001</leafValues></_>
        <_>
          <internalNodes>
            0 -1 30 -83803425 -694844900 -1869606888 1885995082
            -2088704849 -1206906829 1795201218 -11580789</internalNodes>
          <leafValues>
            -6.9358611106872559e-001 6.0475957393646240e-001</leafValues></_>
        <_>
          <internalNodes>
            0 -1 60 1902897952 -1076521403 -1837101025 -397426549
            -1039806078 -2006052693 -1718748285 -594814150</internalNodes>
          <leafValues>
            -7.6126116514205933e-001 4.9314445257186890e-001</leafValues></_>
        <_>
          <internalNodes>
            0 -1 8 1343211615 1923794370 1048578 570529795 1393623387
            553648128 -763279221 -192181745</internalNodes>
          <leafValues>
            -6.3957649469375610e-001 6.0516655445098877e-001</leafValues></_></weakClassifiers></_>
    <!-- stage 4 -->
    <_>
      <maxWeakCount>4</maxWeakCount>
      <stageThreshold>-4.0772971510887146e-001</stageThreshold>
      <weakClassifiers>
        <_>
          <internalNodes>
            0 -1 75 -750718500 -83876864 89 -775823232 -1607950104
            -662691712 1073746061 -7157364</internalNodes>
          <leafValues>
            -6.9585251808166504e-001 6.4346349239349365e-001</leafValues></_>
        <_>
          <internalNodes>
            0 -1 54 1887261104 -2129559407 1627914377 -781074271
            -1471631116 -1438449654 -2104844024 -74464610</internalNodes>
          <leafValues>
            -7.6348805427551270e-001 4.7554492950439453e-001</leafValues></_>
        <_>
          <internalNodes>
            0 -1 1 -1996397623 -568274661 1073750289 -913079677
            -1064263495 -1962798942 -2000465485 -874151463</internalNodes>
          <leafValues>
            -6.6605460643768311e-001 5.3032404184341431e-001</leafValues></_>
        <_>
          <internalNodes>
            0 -1 87 -886848765 1468071941 1065217 365758469 1350567949
            -1173585886 -2013243256 1917011970</internalNodes>
          <leafValues>
            -7.1013224124908447e-001 5.2128684520721436e-001</leafValues></_></weakClassifiers></_>
    <!-- stage 5 -->
    <_>
      <maxWeakCount>5</maxWeakCount>
      <stageThreshold>-8.3055830001831055e-001</stageThreshold>
      <weakClassifiers>
        <_>
          <internalNodes>
            0 -1 51 286527956 289472528 16797976 -1189609196 16908776
            -1458044752 -1342176856 -547127153</internalNodes>
          <leafValues>
            -6.5891474485397339e-001 5.2201259136199951e-001</leafValues></_>
        <_>
          <internalNodes>
            0 -1 16 1897865513 -103705151 1073774863 -247249915
            -2139033415 -1610608464 538477193 151068808</internalNodes>
          <leafValues>
            -6.0667592287063599e-001 5.0743472576141357e-001</leafValues></_>
        <_>
          <internalNodes>
            0 -1 0 -1040128296 -1048542634 1359028481 1393868800
            -804738941 269484072 -2147313517 1106059264</internalNodes>
          <leafValues>
            -6.9648289680480957e-001 4.8894348740577698e-001</leafValues></_>
        <_>
          <internalNodes>
            0 -1 91 -779879984 -2121957302 16927372 -1862074358
            -905740127 -2146664445 -1072846590 -1851526709</internalNodes>
          <leafValues>
            -5.6315988302230835e-001 5.7620948553085327e-001</leafValues></_>
        <_>
          <internalNodes>
            0 -1 50 1216438811 -49184703 1073741827 1529889153
            1346371593 2064353409 -2109730751 1867653131</internalNodes>
          <leafValues>
            -6.1479532718658447e-001 5.8056443929672241e-001</leafValues></_></weakClassifiers></_>
    <!-- stage 6 -->
    <_>
      <maxWeakCount>5</maxWeakCount>
      <stageThreshold>-6.3085865974426270e-001</stageThreshold>
      <weakClassifiers>
        <_>
          <internalNodes>
            0 -1 69 -803679755 1968250968 294027993 -784330736
            1074299064 -939523712 235059404 -551907112</internalNodes>
          <leafValues>
            -6.3819092512130737e-001 5.2960002422332764e-001</leafValues></_>
        <_>
          <internalNodes>
            0 -1 89 -803487281 -788463488 16593 -1962344445 151552955
            1477117952 285360467 -746078037</internalNodes>
          <leafValues>
            -5.1727038621902466e-001 5.9984290599822998e-001</leafValues></_>
        <_>
          <internalNodes>
            0 -1 31 -823664409 1346446656 20482 268607497 680247980
            -1575469055 -234717110 1510195918</internalNodes>
          <leafValues>
            -5.9666818380355835e-001 5.4488486051559448e-001</leafValues></_>
        <_>
          <internalNodes>
            0 -1 95 -645140221 810615819 1073745927 -1744732025
            1619525633 1207961602 42467587 -934297585</internalNodes>
          <leafValues>
            -6.1194700002670288e-001 6.0184544324874878e-001</leafValues></_>
        <_>
          <internalNodes>
            0 -1 13 -809501269 -336659778 -268568606 -201791754
            1836316666 -1887502346 1932885971 -733486239</internalNodes>
          <leafValues>
            -5.5168640613555908e-001 6.3066005706787109e-001</leafValues></_></weakClassifiers></_>
    <!-- stage 7 -->
    <_>
      <maxWeakCount>5</maxWeakCount>
      <stageThreshold>-5.7596981525421143e-001</stageThreshold>
      <weakClassifiers>
        <_>
          <internalNodes>
            0 -1 76 -1743994440 844107800 -1072639791 -547618735 33448
            1073741826 302033384 -611415560</internalNodes>
          <leafValues>
            -6.0493826866149902e-001 5.2103561162948608e-001</leafValues></_>
        <_>
          <internalNodes>
            0 -1 27 -810841443 2147446527 -269500417 -1074024833
            -805355521 -268484609 -1107320833 1308036857</internalNodes>
          <leafValues>
            -4.7388085722923279e-001 5.9658056497573853e-001</leafValues></_>
        <_>
          <internalNodes>
            0 -1 66 -1722236715 402655319 307253463 -268021742
            -2146793336 -1475870584 134326710 -714370549</internalNodes>
          <leafValues>
            -5.4270344972610474e-001 5.4858577251434326e-001</leafValues></_>
        <_>
          <internalNodes>
            0 -1 88 -79186161 -918011 2129624893 1802861431 -1114162
            -310411378 -130261878 1795243802</internalNodes>
          <leafValues>
            -4.7277188301086426e-001 6.3635295629501343e-001</leafValues></_>
        <_>
          <internalNodes>
            0 -1 24 1073794890 -40894448 268505363 -552598892
            -2147448687 -1379925886 -2147466937 1434460161</internalNodes>
          <leafValues>
            -6.4342600107192993e-001 4.6741336584091187e-001</leafValues></_></weakClassifiers></_>
    <!-- stage 8 -->
    <_>
      <maxWeakCount>5</maxWeakCount>
      <stageThreshold>-4.3054154515266418e-001</stageThreshold>
      <weakClassifiers>
        <_>
          <internalNodes>
            0 -1 83 -67108912 -13631584 -65552 -78 2147302827 -826278050
            133650354 -138412037</internalNodes>
          <leafValues>
            -5.1812368631362915e-001 5.7761734724044800e-001</leafValues></_>
        <_>
          <internalNodes>
            0 -1 106 -16798166 -2031124625 -8438024 -1326776337
            -1074268337 1165983574 -184648478 -1812465676</internalNodes>
          <leafValues>
            -4.4865053892135620e-001 6.2958300113677979e-001</leafValues></_>
        <_>
          <internalNodes>
            0 -1 5 -132915042 -973024896 -1073741800 -804716542
            1073815686 -2146402292 8568992 -735608750</internalNodes>
          <leafValues>
            -5.4121631383895874e-001 5.7752603292465210e-001</leafValues></_>
        <_>
          <internalNodes>
            0 -1 53 1360249489 -787382124 -2139095024 277041169
            136841229 -400556029 142680200 -968548200</internalNodes>
          <leafValues>
            -5.5122089385986328e-001 5.5733770132064819e-001</leafValues></_>
        <_>
          <internalNodes>
            0 -1 9 -855599376 -786399097 -1878974448 -788283376
            -939343224 -1191116790 134251137 -922509149</internalNodes>
          <leafValues>
            -5.5812227725982666e-001 5.8452707529067993e-001</leafValues></_></weakClassifiers></_>
    <!-- stage 9 -->
    <_>
      <maxWeakCount>6</maxWeakCount>
      <stageThreshold>-5.7842606306076050e-001</stageThreshold>
      <weakClassifiers>
        <_>
          <internalNodes>
            0 -1 38 1073989850 272728065 352342674 1359155202 16777353
            -2012199934 1510178972 -619216741</internalNodes>
          <leafValues>
            -6.6666668653488159e-001 4.1917023062705994e-001</leafValues></_>
        <_>
          <internalNodes>
            0 -1 70 -2129080092 285933594 67736 -1992228721 -1610578756
            -938934272 -394098550 -363019381</internalNodes>
          <leafValues>
            -6.7541825771331787e-001 3.7877911329269409e-001</leafValues></_>
        <_>
          <internalNodes>
            0 -1 2 1304606923 -1043988348 196864 -716922880 1209049484
            37748736 1074497541 -783956415</internalNodes>
          <leafValues>
            -5.2862912416458130e-001 5.3464418649673462e-001</leafValues></_>
        <_>
          <internalNodes>
            0 -1 37 -771619234 -1691352234 -1065350767 1358962688
            1346502659 -670367736 -1040087927 -79322613</internalNodes>
          <leafValues>
            -7.0871180295944214e-001 3.8189807534217834e-001</leafValues></_>
        <_>
          <internalNodes>
            0 -1 32 -564984830 -1761083264 8338 587993345 -1744287606
            293666944 536903810 -1005108501</internalNodes>
          <leafValues>
            -5.3459531068801880e-001 5.2947485446929932e-001</leafValues></_>
        <_>
          <internalNodes>
            0 -1 10 -1508868070 965771409 1048597 1090945241 -2113889818
            -1711276024 103385803 1593917472</internalNodes>
          <leafValues>
            -6.6850930452346802e-001 4.4383534789085388e-001</leafValues></_></weakClassifiers></_>
    <!-- stage 10 -->
    <_>
      <maxWeakCount>4</maxWeakCount>
      <stageThreshold>-2.8903317451477051e-001</stageThreshold>
      <weakClassifiers>
        <_>
          <internalNodes>
            0 -1 57 1350761694 -1726734336 16700 -771715056 -1979612534
            -1960247287 33661108 -147594486</internalNodes>
          <leafValues>
            -7.2036474943161011e-001 4.5244956016540527e-001</leafValues></_>
        <_>
          <internalNodes>
            0 -1 81 1409339864 -183468028 274808891 -780025844
            -1073680212 -1719664512 713032062 -549916148</internalNodes>
          <leafValues>
            -7.3347598314285278e-001 3.5885295271873474e-001</leafValues></_>
        <_>
          <internalNodes>
            0 -1 33 682490075 -546325006 -1208422403 1474946357
            -1648558338 -285278273 134110322 -909124428</internalNodes>
          <leafValues>
            -4.3626293540000916e-001 6.6414666175842285e-001</leafValues></_>
        <_>
          <internalNodes>
            0 -1 80 -884408814 1908965447 -1060634479 1149517891
            -2139045849 -930562046 -1568634726 1953485835</internalNodes>
          <leafValues>
            -5.8110517263412476e-001 5.0874149799346924e-001</leafValues></_></weakClassifiers></_>
    <!-- stage 11 -->
    <_>
      <maxWeakCount>6</maxWeakCount>
      <stageThreshold>-1.1328809261322021e+000</stageThreshold>
      <weakClassifiers>
        <_>
          <internalNodes>
            0 -1 46 1565872151 -1962834927 -1828715518 83935239
            -1744775028 184615056 -1342156546 -234879986</internalNodes>
          <leafValues>
            -5.8713138103485107e-001 4.5538461208343506e-001</leafValues></_>
        <_>
          <internalNodes>
            0 -1 39 1886724901 1364209729 3252227 1411026965 813701287
            -1870655292 806418447 -917858293</internalNodes>
          <leafValues>
            -5.7922673225402832e-001 4.2498382925987244e-001</leafValues></_>
        <_>
          <internalNodes>
            0 -1 4 -234494989 1430488392 16465 -520040302 -2136858269
            -1283391424 1292480631 1371851783</internalNodes>
          <leafValues>
            -5.0177955627441406e-001 5.5725634098052979e-001</leafValues></_>
        <_>
          <internalNodes>
            0 -1 68 1928917595 2003480116 -1346372001 -1480671420
            1568538459 -1116766603 1903982728 942716864</internalNodes>
          <leafValues>
            -4.8290491104125977e-001 5.7713431119918823e-001</leafValues></_>
        <_>
          <internalNodes>
            0 -1 90 259571577 -337576016 -1610612737 -270596 -1073874966
            -276955146 795211103 -4203064</internalNodes>
          <leafValues>
            -5.0755381584167480e-001 5.6816911697387695e-001</leafValues></_>
        <_>
          <internalNodes>
            0 -1 99 -1048559104 -515551166 8503571 -721350649 1216383104
            -2012381176 856441064 -301940221</internalNodes>
          <leafValues>
            -6.3676452636718750e-001 4.6667957305908203e-001</leafValues></_></weakClassifiers></_>
    <!-- stage 12 -->
    <_>
      <maxWeakCount>4</maxWeakCount>
      <stageThreshold>-2.7483034133911133e-001</stageThreshold>
      <weakClassifiers>
        <_>
          <internalNodes>
            0 -1 21 554148387 1073783585 -1862204011 1153500160
            -1220312791 840180115 -83758310 -1019641121</internalNodes>
          <leafValues>
            -6.1458331346511841e-001 4.8982784152030945e-001</leafValues></_>
        <_>
          <internalNodes>
            0 -1 82 -2133666081 -1053326317 1384592 151857033 780191384
            -1555849086 333136 -777278277</internalNodes>
          <leafValues>
            -6.4720964431762695e-001 4.7257104516029358e-001</leafValues></_>
        <_>
          <internalNodes>
            0 -1 92 -703475625 1414397953 1073791071 1476477206
            -83750907 -79167470 1627928744 1242042394</internalNodes>
          <leafValues>
            -6.1047953367233276e-001 4.5163550972938538e-001</leafValues></_>
        <_>
          <internalNodes>
            0 -1 23 -632823041 1612021825 2109440 1342439425 33915137
            2013995146 -1586933093 -788664301</internalNodes>
          <leafValues>
            -5.6411617994308472e-001 5.3532707691192627e-001</leafValues></_></weakClassifiers></_>
    <!-- stage 13 -->
    <_>
      <maxWeakCount>5</maxWeakCount>
      <stageThreshold>-4.2450460791587830e-001</stageThreshold>
      <weakClassifiers>
        <_>
          <internalNodes>
            0 -1 67 1562181369 1058996120 527433621 -350516973
            -547430658 -12197923 1574887090 1527733659</internalNodes>
          <leafValues>
            -3.6071428656578064e-001 6.0259181261062622e-001</leafValues></_>
        <_>
          <internalNodes>
            0 -1 11 -290455581 -872681734 -419496477 -872841220
            -838866953 -2055 1416984052 -1612187658</internalNodes>
          <leafValues>
            -4.0552592277526855e-001 5.6091326475143433e-001</leafValues></_>
        <_>
          <internalNodes>
            0 -1 40 -670642056 436437265 1249902851 489193859 1145078474
            -1743716349 -1040070515 -127413301</internalNodes>
          <leafValues>
            -5.2255839109420776e-001 4.6695694327354431e-001</leafValues></_>
        <_>
          <internalNodes>
            0 -1 98 -1325148525 -1560116085 17105153 -1034846208
            -1795101541 -662470133 537559176 -1051868275</internalNodes>
          <leafValues>
            -5.1498323678970337e-001 5.0422316789627075e-001</leafValues></_>
        <_>
          <internalNodes>
            0 -1 6 -729496901 1879572746 65536 -1777303546 -1072586706
            -1740529368 -997519358 1380049043</internalNodes>
          <leafValues>
            -5.5046808719635010e-001 5.0191098451614380e-001</leafValues></_></weakClassifiers></_>
    <!-- stage 14 -->
    <_>
      <maxWeakCount>6</maxWeakCount>
      <stageThreshold>-4.7660312056541443e-001</stageThreshold>
      <weakClassifiers>
        <_>
          <internalNodes>
            0 -1 63 6115661 1346969900 -2137765821 1362774401
            -1820327720 -1073709032 1095276826 -11892424</internalNodes>
          <leafValues>
            -5.3580248355865479e-001 4.7572815418243408e-001</leafValues></_>
        <_>
          <internalNodes>
            0 -1 84 306303825 17960320 21104669 -1012072128 1049489
            1746411656 1377862089 -1690582903</internalNodes>
          <leafValues>
            -5.2852654457092285e-001 4.5580416917800903e-001</leafValues></_>
        <_>
          <internalNodes>
            0 -1 19 1515291051 1375928328 1410596880 -2146725888
            -1467238334 1615005865 142624170 -770634910</internalNodes>
          <leafValues>
            -5.8328592777252197e-001 4.3501985073089600e-001</leafValues></_>
        <_>
          <internalNodes>
            0 -1 86 -620756383 2072186951 16843249 1476444709 -109050676
            -1434451888 -1962377030 -1996453878</internalNodes>
          <leafValues>
            -4.7565591335296631e-001 6.2175828218460083e-001</leafValues></_>
        <_>
          <internalNodes>
            0 -1 94 1552126228 -234223608 9994245 -687828221 -792683640
            -1862237687 1347469312 1363243018</internalNodes>
          <leafValues>
            -6.7377674579620361e-001 4.0502795577049255e-001</leafValues></_>
        <_>
          <internalNodes>
            0 -1 26 1614858 -718147323 1896944695 -382441213 -528177135
            -391085432 956407839 34867611</internalNodes>
          <leafValues>
            -6.9372260570526123e-001 4.1135606169700623e-001</leafValues></_></weakClassifiers></_>
    <!-- stage 15 -->
    <_>
      <maxWeakCount>7</maxWeakCount>
      <stageThreshold>-5.2768105268478394e-001</stageThreshold>
      <weakClassifiers>
        <_>
          <internalNodes>
            0 -1 44 16777686 -1861943279 354500880 -1859846141
            1090595049 -1677656056 72040877 -171802469</internalNodes>
          <leafValues>
            -5.4046994447708130e-001 4.4374999403953552e-001</leafValues></_>
        <_>
          <internalNodes>
            0 -1 71 -335884145 -617411016 -8405251 1408737021
            -1074402140 -1073758436 1413480377 -1476380532</internalNodes>
          <leafValues>
            -4.0278238058090210e-001 5.7478284835815430e-001</leafValues></_>
        <_>
          <internalNodes>
            0 -1 56 403787995 -251131888 1073742034 1890648068
            1073954952 -645922304 -2119653184 1506476547</internalNodes>
          <leafValues>
            -5.8192759752273560e-001 4.0828174352645874e-001</leafValues></_>
        <_>
          <internalNodes>
            0 -1 58 -339971 1006374253 -289406985 254779001 251584084
            2139029375 -16974090 -285067273</internalNodes>
          <leafValues>
            -4.4608485698699951e-001 5.8362579345703125e-001</leafValues></_>
        <_>
          <internalNodes>
            0 -1 104 -406852361 -8618049 -1074331862 -59310099 -8519916
            -9470092 -352610728 -109840390</internalNodes>
          <leafValues>
            -4.0332418680191040e-001 7.3582488298416138e-001</leafValues></_>
        <_>
          <internalNodes>
            0 -1 25 169332738 -771538429 -2130636523 1371578881
            -2013175098 -402587648 -805093113 -958299893</internalNodes>
          <leafValues>
            -6.0471475124359131e-001 4.7644346952438354e-001</leafValues></_>
        <_>
          <internalNodes>
            0 -1 42 377989373 -1880219649 1339964413 -269533185
            -10526781 -1342210049 -671137794 1021296367</internalNodes>
          <leafValues>
            -5.0037187337875366e-001 6.0416334867477417e-001</leafValues></_></weakClassifiers></_>
    <!-- stage 16 -->
    <_>
      <maxWeakCount>7</maxWeakCount>
      <stageThreshold>-5.6913560628890991e-001</stageThreshold>
      <weakClassifiers>
        <_>
          <internalNodes>
            0 -1 85 -1877513293 1141915800 134742211 1359003657
            -1876426598 1216512024 555491603 1887419035</internalNodes>
          <leafValues>
            -5.3545230627059937e-001 4.8208469152450562e-001</leafValues></_>
        <_>
          <internalNodes>
            0 -1 55 -786607857 1434452248 18502 119201945 1073748146
            1283459072 -922582910 -633157942</internalNodes>
          <leafValues>
            -5.6624996662139893e-001 4.4052046537399292e-001</leafValues></_>
        <_>
          <internalNodes>
            0 -1 93 -226572977 -680690124 2113830887 -1303003282
            2071963412 -8455049 870708799 -264192002</internalNodes>
          <leafValues>
            -4.6253404021263123e-001 5.1316714286804199e-001</leafValues></_>
        <_>
          <internalNodes>
            0 -1 102 -1046755067 1909686498 -2147479526 -1543474427
            411228424 34144264 -2122317676 -788364896</internalNodes>
          <leafValues>
            -4.8557975888252258e-001 5.5287516117095947e-001</leafValues></_>
        <_>
          <internalNodes>
            0 -1 59 1409822928 1359020053 270008400 -1765207851
            -2013216638 -1035992832 671666403 1519075983</internalNodes>
          <leafValues>
            -5.6860840320587158e-001 4.7103345394134521e-001</leafValues></_>
        <_>
          <internalNodes>
            0 -1 77 -263990691 1034158225 672141589 -1953955711
            159948941 805306672 -2009577013 13193221</internalNodes>
          <leafValues>
            -5.1116985082626343e-001 5.4903531074523926e-001</leafValues></_>
        <_>
          <internalNodes>
            0 -1 22 -1723029463 -36931 -217091 -1255215630 215320412
            -176169258 444558799 -850049547</internalNodes>
          <leafValues>
            -4.6046778559684753e-001 6.0813778638839722e-001</leafValues></_></weakClassifiers></_>
    <!-- stage 17 -->
    <_>
      <maxWeakCount>6</maxWeakCount>
      <stageThreshold>-3.4225353598594666e-001</stageThreshold>
      <weakClassifiers>
        <_>
          <internalNodes>
            0 -1 65 -782892715 -209387511 33689901 135168 -1865642840
            -1048444884 -402091012 2030231576</internalNodes>
          <leafValues>
            -7.0731705427169800e-001 3.8043478131294250e-001</leafValues></_>
        <_>
          <internalNodes>
            0 -1 15 -847914109 -1023131380 -1879031552 -1613736446
            142705579 -938990975 809583201 -727199040</internalNodes>
          <leafValues>
            -4.9012020230293274e-001 4.7852239012718201e-001</leafValues></_>
        <_>
          <internalNodes>
            0 -1 74 -1610407472 588345359 285347184 -1877802929
            1619149752 -1970798462 -2105261679 -612106865</internalNodes>
          <leafValues>
            -6.3747000694274902e-001 3.7889572978019714e-001</leafValues></_>
        <_>
          <internalNodes>
            0 -1 101 -1874083837 -1660059512 2 1427345539 303235204
            -1937735671 165032 701172361</internalNodes>
          <leafValues>
            -5.1723003387451172e-001 5.3561657667160034e-001</leafValues></_>
        <_>
          <internalNodes>
            0 -1 103 -129351429 -704490176 17137667 1346416650
            -2013167464 -401604608 -1023368534 1779062862</internalNodes>
          <leafValues>
            -5.6328427791595459e-001 4.5748859643936157e-001</leafValues></_>
        <_>
          <internalNodes>
            0 -1 34 1206583269 -38801425 1996468883 -714149900 -4264043
            -591593867 -1476397058 -1059717388</internalNodes>
          <leafValues>
            -4.3261313438415527e-001 6.5088582038879395e-001</leafValues></_></weakClassifiers></_>
    <!-- stage 18 -->
    <_>
      <maxWeakCount>6</maxWeakCount>
      <stageThreshold>-3.3828121423721313e-001</stageThreshold>
      <weakClassifiers>
        <_>
          <internalNodes>
            0 -1 45 1884694270 1879097409 -1610608638 -1577031678
            671492872 2056257536 193499264 1379080640</internalNodes>
          <leafValues>
            -7.8947371244430542e-001 3.2327044010162354e-001</leafValues></_>
        <_>
          <internalNodes>
            0 -1 105 -677383521 -788299455 -1870643160 -1034730751
            -1065320192 1359773888 -1690132468 1347733890</internalNodes>
          <leafValues>
            -5.1111054420471191e-001 4.5251935720443726e-001</leafValues></_>
        <_>
          <internalNodes>
            0 -1 64 1901493391 1070243835 -538050569 1570352573
            1333189940 -15380651 -144192172 197861058</internalNodes>
          <leafValues>
            -4.1344887018203735e-001 5.7979297637939453e-001</leafValues></_>
        <_>
          <internalNodes>
            0 -1 35 -1842235164 -1240464303 1359036560 -1316992812
            536971622 -1375647360 4309610 1365739532</internalNodes>
          <leafValues>
            -5.1753801107406616e-001 5.0438314676284790e-001</leafValues></_>
        <_>
          <internalNodes>
            0 -1 73 -114961755 -579178753 -369120259 2029928312 -10294
            -1611169801 1065287519 1423140691</internalNodes>
          <leafValues>
            -4.5610475540161133e-001 6.2315326929092407e-001</leafValues></_>
        <_>
          <internalNodes>
            0 -1 48 1091586645 1375731714 16777217 -1118633980
            -2088599134 12779524 -1065234270 84034323</internalNodes>
          <leafValues>
            -6.2939822673797607e-001 4.7250264883041382e-001</leafValues></_></weakClassifiers></_>
    <!-- stage 19 -->
    <_>
      <maxWeakCount>7</maxWeakCount>
      <stageThreshold>-7.0193338394165039e-001</stageThreshold>
      <weakClassifiers>
        <_>
          <internalNodes>
            0 -1 47 -1052464348 43590043 -1857023844 -1332616685
            -121995182 49807410 -1048541174 -516911102</internalNodes>
          <leafValues>
            -6.7857140302658081e-001 3.5935395956039429e-001</leafValues></_>
        <_>
          <internalNodes>
            0 -1 97 -111570190 -196668797 -2129657408 1367687185
            -803041105 46801033 -2121854462 -1176253782</internalNodes>
          <leafValues>
            -4.6594071388244629e-001 4.8103260993957520e-001</leafValues></_>
        <_>
          <internalNodes>
            0 -1 7 -61093941 -1870249854 1074267408 -729787374
            1347485795 1653637250 1208324720 817940482</internalNodes>
          <leafValues>
            -5.5785363912582397e-001 4.1718944907188416e-001</leafValues></_>
        <_>
          <internalNodes>
            0 -1 72 -159822747 -550371462 771751804 2075508268 -42009890
            -13107364 -135246374 251672363</internalNodes>
          <leafValues>
            -4.6259674429893494e-001 5.5927497148513794e-001</leafValues></_>
        <_>
          <internalNodes>
            0 -1 79 1410015965 1091837968 50332048 -640679680 -929521478
            948634667 1494368389 -1962153923</internalNodes>
          <leafValues>
            -5.8052325248718262e-001 4.7177088260650635e-001</leafValues></_>
        <_>
          <internalNodes>
            0 -1 3 -270074129 -119083028 -286376713 -1258422556
            1878753261 -134742018 -1778385665 81773663</internalNodes>
          <leafValues>
            -4.9688842892646790e-001 5.5527913570404053e-001</leafValues></_>
        <_>
          <internalNodes>
            0 -1 61 2010967675 923598314 -2302287 1784410093 1308389164
            -465477635 -1647005959 889620187</internalNodes>
          <leafValues>
            -4.3374311923980713e-001 6.2774747610092163e-001</leafValues></_></weakClassifiers></_>
    <!-- stage 20 -->
    <_>
      <maxWeakCount>6</maxWeakCount>
      <stageThreshold>-9.7347235679626465e-001</stageThreshold>
      <weakClassifiers>
        <_>
          <internalNodes>
            0 -1 49 558838272 -796302322 -1065320397 -790068829
            -1067417201 -1069234174 -1071562742 -147946713</internalNodes>
          <leafValues>
            -7.1217709779739380e-001 3.5904255509376526e-001</leafValues></_>
        <_>
          <internalNodes>
            0 -1 62 290821778 1396779304 16826521 307531799 -2118088562
            1207959696 -2131195998 -754367861</internalNodes>
          <leafValues>
            -5.0877803564071655e-001 4.5274740457534790e-001</leafValues></_>
        <_>
          <internalNodes>
            0 -1 28 -272834901 -102060050 1996482294 -679542800
            -268442113 -865599617 -151011152 -765330012</internalNodes>
          <leafValues>
            -4.2673188447952271e-001 5.5648750066757202e-001</leafValues></_>
        <_>
          <internalNodes>
            0 -1 43 -17043737 -42992026 -196609 -1725366529 -41730
            -538968195 -18939932 -950640998</internalNodes>
          <leafValues>
            -4.6151027083396912e-001 5.6121373176574707e-001</leafValues></_>
        <_>
          <internalNodes>
            0 -1 100 -268189061 -461356922 -1878898542 1610776601
            -1056931252 -1710751576 1224772709 -737963502</internalNodes>
          <leafValues>
            -4.9144673347473145e-001 5.3830295801162720e-001</leafValues></_>
        <_>
          <internalNodes>
            0 -1 20 -1028481671 1056894693 -4358147 2038275300
            -1380148061 -807609089 653782351 -808336177</internalNodes>
          <leafValues>
            -4.2726737260818481e-001 6.2923765182495117e-001</leafValues></_></weakClassifiers></_></stages>
  <features>
    <_>
      <rect>
        0 0 4 9</rect></_>
    <_>
      <rect>
        0 1 12 16</rect></_>
    <_>
      <rect>
        0 3 3 6</rect></_>
    <_>
      <rect>
        0 4 5 8</rect></_>
    <_>
      <rect>
        0 10 3 7</rect></_>
    <_>
      <rect>
        0 16 2 3</rect></_>
    <_>
      <rect>
        0 16 3 7</rect></_>
    <_>
      <rect>
        0 17 2 4</rect></_>
    <_>
      <rect>
        0 25 6 8</rect></_>
    <_>
      <rect>
        1 0 6 8</rect></_>
    <_>
      <rect>
        1 0 14 6</rect></_>
    <_>
      <rect>
        1 1 4 3</rect></_>
    <_>
      <rect>
        1 3 13 16</rect></_>
    <_>
      <rect>
        1 8 2 3</rect></_>
    <_>
      <rect>
        1 20 16 11</rect></_>
    <_>
      <rect>
        2 5 2 2</rect></_>
    <_>
      <rect>
        2 9 16 11</rect></_>
    <_>
      <rect>
        2 26 16 9</rect></_>
    <_>
      <rect>
        2 31 16 8</rect></_>
    <_>
      <rect>
        2 34 4 4</rect></_>
    <_>
      <rect>
        3 0 10 7</rect></_>
    <_>
      <rect>
        3 1 10 15</rect></_>
    <_>
      <rect>
        3 6 11 5</rect></_>
    <_>
      <rect>
        3 25 4 6</rect></_>
    <_>
      <rect>
        4 0 11 3</rect></_>
    <_>
      <rect>
        4 2 6 17</rect></_>
    <_>
      <rect>
        4 4 12 9</rect></_>
    <_>
      <rect>
        4 8 12 12</rect></_>
    <_>
      <rect>
        4 16 3 3</rect></_>
    <_>
      <rect>
        4 35 7 5</rect></_>
    <_>
      <rect>
        4 40 8 4</rect></_>
    <_>
      <rect>
        5 27 3 6</rect></_>
    <_>
      <rect>
        5 28 2 6</rect></_>
    <_>
      <rect>
        6 0 3 4</rect></_>
    <_>
      <rect>
        7 11 4 2</rect></_>
    <_>
      <rect>
        7 11 6 4</rect></_>
    <_>
      <rect>
        7 19 7 11</rect></_>
    <_>
      <rect>
        7 25 6 10</rect></_>
    <_>
      <rect>
        7 46 13 3</rect></_>
    <_>
      <rect>
        8 14 14 9</rect></_>
    <_>
      <rect>
        8 25 3 8</rect></_>
    <_>
      <rect>
        9 43 8 4</rect></_>
    <_>
      <rect>
        10 23 9 6</rect></_>
    <_>
      <rect>
        10 39 3 4</rect></_>
    <_>
      <rect>
        10 48 11 2</rect></_>
    <_>
      <rect>
        11 39 3 3</rect></_>
    <_>
      <rect>
        11 39 3 5</rect></_>
    <_>
      <rect>
        12 24 9 9</rect></_>
    <_>
      <rect>
        12 42 1 3</rect></_>
    <_>
      <rect>
        13 4 12 16</rect></_>
    <_>
      <rect>
        13 43 2 3</rect></_>
    <_>
      <rect>
        13 46 8 3</rect></_>
    <_>
      <rect>
        14 40 12 5</rect></_>
    <_>
      <rect>
        14 45 2 1</rect></_>
    <_>
      <rect>
        15 27 11 9</rect></_>
    <_>
      <rect>
        15 44 3 3</rect></_>
    <_>
      <rect>
        15 45 4 2</rect></_>
    <_>
      <rect>
        15 48 5 2</rect></_>
    <_>
      <rect>
        16 47 2 2</rect></_>
    <_>
      <rect>
        17 46 5 2</rect></_>
    <_>
      <rect>
        18 15 10 13</rect></_>
    <_>
      <rect>
        18 41 5 3</rect></_>
    <_>
      <rect>
        18 43 6 3</rect></_>
    <_>
      <rect>
        18 46 3 3</rect></_>
    <_>
      <rect>
        19 38 3 4</rect></_>
    <_>
      <rect>
        19 49 3 2</rect></_>
    <_>
      <rect>
        19 50 3 1</rect></_>
    <_>
      <rect>
        20 43 5 3</rect></_>
    <_>
      <rect>
        21 4 8 3</rect></_>
    <_>
      <rect>
        21 49 3 2</rect></_>
    <_>
      <rect>
        23 25 7 10</rect></_>
    <_>
      <rect>
        24 0 7 4</rect></_>
    <_>
      <rect>
        24 8 7 4</rect></_>
    <_>
      <rect>
        24 16 3 4</rect></_>
    <_>
      <rect>
        24 45 6 3</rect></_>
    <_>
      <rect>
        24 46 3 3</rect></_>
    <_>
      <rect>
        24 49 3 2</rect></_>
    <_>
      <rect>
        25 38 2 1</rect></_>
    <_>
      <rect>
        25 40 8 5</rect></_>
    <_>
      <rect>
        26 47 3 2</rect></_>
    <_>
      <rect>
        27 5 7 15</rect></_>
    <_>
      <rect>
        27 46 2 3</rect></_>
    <_>
      <rect>
        28 37 6 6</rect></_>
    <_>
      <rect>
        28 46 4 2</rect></_>
    <_>
      <rect>
        28 47 2 2</rect></_>
    <_>
      <rect>
        28 47 5 2</rect></_>
    <_>
      <rect>
        29 8 5 4</rect></_>
    <_>
      <rect>
        29 13 7 7</rect></_>
    <_>
      <rect>
        30 6 6 7</rect></_>
    <_>
      <rect>
        30 43 5 3</rect></_>
    <_>
      <rect>
        31 45 2 3</rect></_>
    <_>
      <rect>
        33 18 5 11</rect></_>
    <_>
      <rect>
        34 0 4 2</rect></_>
    <_>
      <rect>
        34 1 5 4</rect></_>
    <_>
      <rect>
        34 4 5 8</rect></_>
    <_>
      <rect>
        34 24 5 6</rect></_>
    <_>
      <rect>
        35 33 5 5</rect></_>
    <_>
      <rect>
        36 37 3 3</rect></_>
    <_>
      <rect>
        36 45 1 2</rect></_>
    <_>
      <rect>
        37 0 4 7</rect></_>
    <_>
      <rect>
        38 3 4 4</rect></_>
    <_>
      <rect>
        38 24 3 6</rect></_>
    <_>
      <rect>
        42 19 1 1</rect></_>
    <_>
      <rect>
        43 0 2 4</rect></_>
    <_>
      <rect>
        43 7 2 5</rect></_>
    <_>
      <rect>
        43 14 2 4</rect></_>
    <_>
      <rect>
        47 21 1 1</rect></_></features></cascade>
</opencv_storage>
