<?xml version="1.0"?>
<opencv_storage>
<cascade>
  <stageType>BOOST</stageType>
  <featureType>LBP</featureType>
  <height>30</height>
  <width>35</width>
  <stageParams>
    <boostType>GAB</boostType>
    <minHitRate>9.9500000476837158e-001</minHitRate>
    <maxFalseAlarm>5.0000000000000000e-001</maxFalseAlarm>
    <weightTrimRate>9.4999999999999996e-001</weightTrimRate>
    <maxDepth>1</maxDepth>
    <maxWeakCount>100</maxWeakCount></stageParams>
  <featureParams>
    <maxCatCount>256</maxCatCount>
    <featSize>1</featSize></featureParams>
  <stageNum>21</stageNum>
  <stages>
    <!-- stage 0 -->
    <_>
      <maxWeakCount>2</maxWeakCount>
      <stageThreshold>-4.9834243953227997e-002</stageThreshold>
      <weakClassifiers>
        <_>
          <internalNodes>
            0 -1 29 285331959 -607125488 16781329 -654241527 -1710618437
            -1735917432 17336543 1535672521</internalNodes>
          <leafValues>
            -9.6475768089294434e-001 9.0909093618392944e-001</leafValues></_>
        <_>
          <internalNodes>
            0 -1 11 -251596322 -651099776 85172603 -174489315
            -2138924054 -1987966835 -2130648869 -7630630</internalNodes>
          <leafValues>
            -9.2132776975631714e-001 9.1492348909378052e-001</leafValues></_></weakClassifiers></_>
    <!-- stage 1 -->
    <_>
      <maxWeakCount>2</maxWeakCount>
      <stageThreshold>7.2653539245948195e-004</stageThreshold>
      <weakClassifiers>
        <_>
          <internalNodes>
            0 -1 45 -4456456 -4718608 -8388619 -657935 -4194305
            -1074790402 -1537 -80770673</internalNodes>
          <leafValues>
            -8.8749998807907104e-001 9.2957746982574463e-001</leafValues></_>
        <_>
          <internalNodes>
            0 -1 22 -652622600 -608104296 16795093 1569017888
            -2113350405 -1414822781 184609019 -1683258997</internalNodes>
          <leafValues>
            -9.0803158283233643e-001 8.8822650909423828e-001</leafValues></_></weakClassifiers></_>
    <!-- stage 2 -->
    <_>
      <maxWeakCount>2</maxWeakCount>
      <stageThreshold>-2.9082378372550011e-002</stageThreshold>
      <weakClassifiers>
        <_>
          <internalNodes>
            0 -1 46 -3 -8712 -536874563 -11711212 -1074003969 -83713
            -541065793 -543308547</internalNodes>
          <leafValues>
            -8.5276073217391968e-001 9.2844367027282715e-001</leafValues></_>
        <_>
          <internalNodes>
            0 -1 10 -552478209 -57028392 823317855 1606648285 570470831
            -24049493 154206619 433789133</internalNodes>
          <leafValues>
            -9.5752602815628052e-001 8.4176796674728394e-001</leafValues></_></weakClassifiers></_>
    <!-- stage 3 -->
    <_>
      <maxWeakCount>3</maxWeakCount>
      <stageThreshold>-8.6794042587280273e-001</stageThreshold>
      <weakClassifiers>
        <_>
          <internalNodes>
            0 -1 50 -1081344001 -176846849 1073739901 -513 -1146421319
            -1073741857 996277675 -1</internalNodes>
          <leafValues>
            -7.6377952098846436e-001 9.0740740299224854e-001</leafValues></_>
        <_>
          <internalNodes>
            0 -1 13 -75301958 -115707632 201413257 -1693462509
            -2120164869 -233107297 -1322586949 -9489681</internalNodes>
          <leafValues>
            -8.9768397808074951e-001 7.8536361455917358e-001</leafValues></_>
        <_>
          <internalNodes>
            0 -1 36 -776760904 -40697792 -2062458409 -12517375
            -578313797 -167229176 705356427 -1080053073</internalNodes>
          <leafValues>
            -8.8952451944351196e-001 7.9357695579528809e-001</leafValues></_></weakClassifiers></_>
    <!-- stage 4 -->
    <_>
      <maxWeakCount>2</maxWeakCount>
      <stageThreshold>-1.9527383148670197e-001</stageThreshold>
      <weakClassifiers>
        <_>
          <internalNodes>
            0 -1 39 -1187785733 1532465217 -587113153 1427128339
            17035435 -1115619325 67607519 1539298987</internalNodes>
          <leafValues>
            -9.3764990568161011e-001 7.8129953145980835e-001</leafValues></_>
        <_>
          <internalNodes>
            0 -1 37 -107226114 -207683180 -1862254355 -543965135
            -1601469206 -1702887352 143625119 -547387169</internalNodes>
          <leafValues>
            -9.2741328477859497e-001 7.4237602949142456e-001</leafValues></_></weakClassifiers></_>
    <!-- stage 5 -->
    <_>
      <maxWeakCount>3</maxWeakCount>
      <stageThreshold>-8.9872992038726807e-001</stageThreshold>
      <weakClassifiers>
        <_>
          <internalNodes>
            0 -1 7 -179244548 -203869935 -2013064653 -645406669
            -391085973 -394164797 210600587 -74466401</internalNodes>
          <leafValues>
            -9.1469192504882813e-001 7.7955269813537598e-001</leafValues></_>
        <_>
          <internalNodes>
            0 -1 41 -8261189 -749403411 -2125348481 1539641749 180731
            -644743157 681615547 -577175413</internalNodes>
          <leafValues>
            -7.9017001390457153e-001 8.7592476606369019e-001</leafValues></_>
        <_>
          <internalNodes>
            0 -1 59 268473554 -788004846 2030090393 -581890031
            -1476335410 -1744305974 545300731 -607289207</internalNodes>
          <leafValues>
            -8.5269153118133545e-001 8.0613201856613159e-001</leafValues></_></weakClassifiers></_>
    <!-- stage 6 -->
    <_>
      <maxWeakCount>2</maxWeakCount>
      <stageThreshold>-1.1860562115907669e-001</stageThreshold>
      <weakClassifiers>
        <_>
          <internalNodes>
            0 -1 8 -179251532 50954245 -938868719 -268237557 1073840576
            -2004811646 -503242061 -2359617</internalNodes>
          <leafValues>
            -8.9423078298568726e-001 7.5000000000000000e-001</leafValues></_>
        <_>
          <internalNodes>
            0 -1 26 -639633441 -1323663152 276890141 -585281059
            -802826533 -813517944 -1073035254 -619710323</internalNodes>
          <leafValues>
            -8.2531231641769409e-001 7.7562516927719116e-001</leafValues></_></weakClassifiers></_>
    <!-- stage 7 -->
    <_>
      <maxWeakCount>3</maxWeakCount>
      <stageThreshold>-7.1212369203567505e-001</stageThreshold>
      <weakClassifiers>
        <_>
          <internalNodes>
            0 -1 52 -262149 -645202742 -524289 -552218504 -65538
            -1628791046 -65537 -538973701</internalNodes>
          <leafValues>
            -6.5808820724487305e-001 9.1269838809967041e-001</leafValues></_>
        <_>
          <internalNodes>
            0 -1 61 -69929524 -494419949 16843139 -515145303 -2080134645
            -2147418110 -519641973 -170925237</internalNodes>
          <leafValues>
            -8.9706569910049438e-001 7.0192152261734009e-001</leafValues></_>
        <_>
          <internalNodes>
            0 -1 0 1930154459 -679149542 16778393 1427997456 -2012614405
            -1170079606 1098943934 -540020606</internalNodes>
          <leafValues>
            -7.5148493051528931e-001 8.4303027391433716e-001</leafValues></_></weakClassifiers></_>
    <!-- stage 8 -->
    <_>
      <maxWeakCount>2</maxWeakCount>
      <stageThreshold>-1.5383227169513702e-001</stageThreshold>
      <weakClassifiers>
        <_>
          <internalNodes>
            0 -1 23 2066991612 -540031808 -1995815907 -30961404
            -1207859185 -1190555062 -1803247430 -6629223</internalNodes>
          <leafValues>
            -8.9603960514068604e-001 7.2049689292907715e-001</leafValues></_>
        <_>
          <internalNodes>
            0 -1 60 -652159236 -75480880 1494307317 -620298160
            -1433884226 -1162706804 -933170965 -846215143</internalNodes>
          <leafValues>
            -8.4319323301315308e-001 7.4220734834671021e-001</leafValues></_></weakClassifiers></_>
    <!-- stage 9 -->
    <_>
      <maxWeakCount>3</maxWeakCount>
      <stageThreshold>-6.5940606594085693e-001</stageThreshold>
      <weakClassifiers>
        <_>
          <internalNodes>
            0 -1 25 -5505025 -25 2147483647 -1 -1153761349 -1 1059061759
            -4197889</internalNodes>
          <leafValues>
            -6.7378640174865723e-001 8.4240150451660156e-001</leafValues></_>
        <_>
          <internalNodes>
            0 -1 5 -250031216 -210976624 293667289 -82734848 -1853757189
            -939491189 -1560226917 -609283965</internalNodes>
          <leafValues>
            -7.4581646919250488e-001 7.6813721656799316e-001</leafValues></_>
        <_>
          <internalNodes>
            0 -1 52 -1073742853 -376771362 -524289 -552218120 -65538
            -831873286 -65537 -2111024</internalNodes>
          <leafValues>
            -7.5375688076019287e-001 7.9513031244277954e-001</leafValues></_></weakClassifiers></_>
    <!-- stage 10 -->
    <_>
      <maxWeakCount>3</maxWeakCount>
      <stageThreshold>-8.5611504316329956e-001</stageThreshold>
      <weakClassifiers>
        <_>
          <internalNodes>
            0 -1 44 -1 -16047 -1 -12759587 -1073741825 -8193 -4196213
            -3420705</internalNodes>
          <leafValues>
            -6.8862277269363403e-001 8.1718462705612183e-001</leafValues></_>
        <_>
          <internalNodes>
            0 -1 21 -609005318 -692367316 -937058497 -385607241
            243521839 -2079135325 -444024381 -543969361</internalNodes>
          <leafValues>
            -8.8032805919647217e-001 6.3883394002914429e-001</leafValues></_>
        <_>
          <internalNodes>
            0 -1 38 -1759782405 1997383944 -2147445367 -608628736
            403215259 -1142060784 156139679 -1685196776</internalNodes>
          <leafValues>
            -7.5122338533401489e-001 7.1283578872680664e-001</leafValues></_></weakClassifiers></_>
    <!-- stage 11 -->
    <_>
      <maxWeakCount>3</maxWeakCount>
      <stageThreshold>-6.9936758279800415e-001</stageThreshold>
      <weakClassifiers>
        <_>
          <internalNodes>
            0 -1 43 -1 -67 -8388613 -35463 -4194305 -536870913
            2146956543 -574630401</internalNodes>
          <leafValues>
            -6.5060240030288696e-001 7.7454543113708496e-001</leafValues></_>
        <_>
          <internalNodes>
            0 -1 33 -882140966 -582942014 1628553241 -553549616
            302022831 -1681350520 1527300267 -561253939</internalNodes>
          <leafValues>
            -6.6015988588333130e-001 7.4854123592376709e-001</leafValues></_>
        <_>
          <internalNodes>
            0 -1 17 -117091366 -580943734 1376273617 -82722792
            -1258100037 -1601658879 243835647 -712302157</internalNodes>
          <leafValues>
            -7.9730641841888428e-001 6.5927374362945557e-001</leafValues></_></weakClassifiers></_>
    <!-- stage 12 -->
    <_>
      <maxWeakCount>3</maxWeakCount>
      <stageThreshold>-6.0684293508529663e-001</stageThreshold>
      <weakClassifiers>
        <_>
          <internalNodes>
            0 -1 6 1465766879 1599461215 2136473599 2136276983 -2228225
            -10616993 -1 -15351813</internalNodes>
          <leafValues>
            -6.7951315641403198e-001 7.8738737106323242e-001</leafValues></_>
        <_>
          <internalNodes>
            0 -1 30 -162048001 -413549540 1099507225 -585299707
            134322315 -883304946 1638083597 -2160437</internalNodes>
          <leafValues>
            -6.6687405109405518e-001 7.6256990432739258e-001</leafValues></_>
        <_>
          <internalNodes>
            0 -1 27 -1739721509 -708837360 -1929329441 -708115172
            -1953984085 -1159430138 457646335 -618954569</internalNodes>
          <leafValues>
            -6.8989962339401245e-001 7.9748940467834473e-001</leafValues></_></weakClassifiers></_>
    <!-- stage 13 -->
    <_>
      <maxWeakCount>3</maxWeakCount>
      <stageThreshold>-6.1774265766143799e-001</stageThreshold>
      <weakClassifiers>
        <_>
          <internalNodes>
            0 -1 18 -707558244 -1723775227 -1941863369 -142277885
            -611811146 -693626727 -1456682709 -4254997</internalNodes>
          <leafValues>
            -7.5286042690277100e-001 7.0540100336074829e-001</leafValues></_>
        <_>
          <internalNodes>
            0 -1 54 -65797 -538379538 -4259843 1198906868 -134283265
            -352674566 -131073 -572532611</internalNodes>
          <leafValues>
            -6.5801310539245605e-001 7.8846067190170288e-001</leafValues></_>
        <_>
          <internalNodes>
            0 -1 35 -1852719077 -1777106762 1225086591 -581202687
            -2012962163 -1379925840 310961039 -645146165</internalNodes>
          <leafValues>
            -6.2995904684066772e-001 7.9313087463378906e-001</leafValues></_></weakClassifiers></_>
    <!-- stage 14 -->
    <_>
      <maxWeakCount>4</maxWeakCount>
      <stageThreshold>-1.0365526676177979e+000</stageThreshold>
      <weakClassifiers>
        <_>
          <internalNodes>
            0 -1 24 -1052673 -2 -2051 -538968065 2146369534 -544280598
            -536870913 -3145729</internalNodes>
          <leafValues>
            -6.4800000190734863e-001 7.7737224102020264e-001</leafValues></_>
        <_>
          <internalNodes>
            0 -1 15 -5506565 -5311256 -1619001353 -1084228355 1877996542
            -5248786 1568634299 -540019457</internalNodes>
          <leafValues>
            -5.6606119871139526e-001 8.2361048460006714e-001</leafValues></_>
        <_>
          <internalNodes>
            0 -1 57 2147483647 -24453898 -1 -574226436 -16777217
            730660860 -246022145 -547487745</internalNodes>
          <leafValues>
            -5.4284340143203735e-001 8.6007070541381836e-001</leafValues></_>
        <_>
          <internalNodes>
            0 -1 40 -1828220453 1166016688 285392985 491849932 8696511
            -1500872560 176597914 -875585318</internalNodes>
          <leafValues>
            -6.6108959913253784e-001 7.2035187482833862e-001</leafValues></_></weakClassifiers></_>
    <!-- stage 15 -->
    <_>
      <maxWeakCount>3</maxWeakCount>
      <stageThreshold>-7.0510298013687134e-001</stageThreshold>
      <weakClassifiers>
        <_>
          <internalNodes>
            0 -1 9 1364579231 1371767621 -1073654507 -99346795 79783355
            -1256611805 512877525 993750907</internalNodes>
          <leafValues>
            -8.4042555093765259e-001 6.2202382087707520e-001</leafValues></_>
        <_>
          <internalNodes>
            0 -1 58 -803876193 -41778988 176227549 -687620016 -218074946
            -1079488376 -1945459829 -884105073</internalNodes>
          <leafValues>
            -6.6071784496307373e-001 7.1459871530532837e-001</leafValues></_>
        <_>
          <internalNodes>
            0 -1 14 -44043329 -536883730 1431664507 -572527113 -1048577
            -1616071234 1600126462 -544281090</internalNodes>
          <leafValues>
            -5.7927620410919189e-001 8.2331621646881104e-001</leafValues></_></weakClassifiers></_>
    <!-- stage 16 -->
    <_>
      <maxWeakCount>3</maxWeakCount>
      <stageThreshold>-5.9513556957244873e-001</stageThreshold>
      <weakClassifiers>
        <_>
          <internalNodes>
            0 -1 51 -13 -3213080 -259 -540019508 -257 -1661010708
            -131329 -2100097</internalNodes>
          <leafValues>
            -5.4528653621673584e-001 7.8303748369216919e-001</leafValues></_>
        <_>
          <internalNodes>
            0 -1 32 2131210651 -1185628158 877667327 -577650302
            1477505438 -1726820094 2024966367 1308352728</internalNodes>
          <leafValues>
            -7.1655905246734619e-001 6.2456965446472168e-001</leafValues></_>
        <_>
          <internalNodes>
            0 -1 20 -4680357 -729349329 -1865088783 -101768181
            -1610603893 -869793782 -1475798969 -91358394</internalNodes>
          <leafValues>
            -6.6161400079727173e-001 7.0901662111282349e-001</leafValues></_></weakClassifiers></_>
    <!-- stage 17 -->
    <_>
      <maxWeakCount>4</maxWeakCount>
      <stageThreshold>1.4971490949392319e-002</stageThreshold>
      <weakClassifiers>
        <_>
          <internalNodes>
            0 -1 12 -5121 -290668 -2099209 -33554449 -3145729 -275841110
            -102051841 -544210945</internalNodes>
          <leafValues>
            -6.5652173757553101e-001 6.8707484006881714e-001</leafValues></_>
        <_>
          <internalNodes>
            0 -1 42 1513586815 -708313064 526671 -225604475 -509529095
            -892174336 454592811 -874543976</internalNodes>
          <leafValues>
            -6.6539406776428223e-001 6.7431998252868652e-001</leafValues></_>
        <_>
          <internalNodes>
            0 -1 1 -576859269 1988249852 830607641 -577713260
            -1169620856 -1165393916 2081436595 -813058930</internalNodes>
          <leafValues>
            -6.5253740549087524e-001 6.9147163629531860e-001</leafValues></_>
        <_>
          <internalNodes>
            0 -1 16 -1996253187 -1790098944 1628032023 -585656179
            -2004772694 -502464344 277723179 -1932867509</internalNodes>
          <leafValues>
            -6.9388592243194580e-001 6.7546463012695313e-001</leafValues></_></weakClassifiers></_>
    <!-- stage 18 -->
    <_>
      <maxWeakCount>4</maxWeakCount>
      <stageThreshold>-8.4691248834133148e-002</stageThreshold>
      <weakClassifiers>
        <_>
          <internalNodes>
            0 -1 3 1430615925 -1 1566440447 -1 2145370111 -36372481
            -537002017 -952321</internalNodes>
          <leafValues>
            -5.3030300140380859e-001 7.3461538553237915e-001</leafValues></_>
        <_>
          <internalNodes>
            0 -1 55 1506891991 -599908254 1359742729 1603209216
            -1879045960 -637001592 -534632437 -611671624</internalNodes>
          <leafValues>
            -6.9238394498825073e-001 6.2608945369720459e-001</leafValues></_>
        <_>
          <internalNodes>
            0 -1 47 -222080805 -654213104 1378030027 1560879364 4227515
            -2134507488 403743401 1333985675</internalNodes>
          <leafValues>
            -6.9556212425231934e-001 6.1501270532608032e-001</leafValues></_>
        <_>
          <internalNodes>
            0 -1 4 1360087551 -1815781104 -1199568739 -75032188
            343950799 16777360 79168250 1493811484</internalNodes>
          <leafValues>
            -7.4193543195724487e-001 5.7128405570983887e-001</leafValues></_></weakClassifiers></_>
    <!-- stage 19 -->
    <_>
      <maxWeakCount>5</maxWeakCount>
      <stageThreshold>-6.1770534515380859e-001</stageThreshold>
      <weakClassifiers>
        <_>
          <internalNodes>
            0 -1 56 -981413378 1867354504 285474891 -120577512
            -2002730913 -1997996032 214984847 -1718902069</internalNodes>
          <leafValues>
            -6.8899524211883545e-001 6.1904764175415039e-001</leafValues></_>
        <_>
          <internalNodes>
            0 -1 49 -799047213 -1810530281 318783763 596714259 296747584
            -101122030 1799586083 -292900817</internalNodes>
          <leafValues>
            -6.5593791007995605e-001 6.2812364101409912e-001</leafValues></_>
        <_>
          <internalNodes>
            0 -1 19 1465171875 2135293783 2138570743 -131076 -1082535939
            -11141224 -131105 -2506921</internalNodes>
          <leafValues>
            -5.9042084217071533e-001 7.3034286499023438e-001</leafValues></_>
        <_>
          <internalNodes>
            0 -1 53 -1809458736 -1325104102 2228573 -1219719040
            296779931 -1383301104 1593944199 -808728423</internalNodes>
          <leafValues>
            -7.0154637098312378e-001 6.5098696947097778e-001</leafValues></_>
        <_>
          <internalNodes>
            0 -1 34 -338756869 -17892616 1061157883 -573573898
            -1073775620 -1360090948 494163327 -807407137</internalNodes>
          <leafValues>
            -5.8563023805618286e-001 7.8856438398361206e-001</leafValues></_></weakClassifiers></_>
    <!-- stage 20 -->
    <_>
      <maxWeakCount>4</maxWeakCount>
      <stageThreshold>-8.0677360296249390e-002</stageThreshold>
      <weakClassifiers>
        <_>
          <internalNodes>
            0 -1 31 -1590459041 -83243176 1629490205 -82771696 134218630
            1342177328 -360435557 -1055920705</internalNodes>
          <leafValues>
            -6.9523811340332031e-001 6.2738853693008423e-001</leafValues></_>
        <_>
          <internalNodes>
            0 -1 2 -7603981 -1624257288 530578939 -541196291 732667647
            -1342206722 522110974 -543171329</internalNodes>
          <leafValues>
            -5.9067815542221069e-001 7.2295194864273071e-001</leafValues></_>
        <_>
          <internalNodes>
            0 -1 48 1967325406 -620674744 -2010111713 -125607669
            1090523851 -905673982 -1962774437 -342112373</internalNodes>
          <leafValues>
            -7.3312628269195557e-001 6.2830424308776855e-001</leafValues></_>
        <_>
          <internalNodes>
            0 -1 28 58956699 -987772645 977306867 1067550722 -2013228866
            -917978848 1279560399 -150921184</internalNodes>
          <leafValues>
            -6.7807948589324951e-001 6.2473505735397339e-001</leafValues></_></weakClassifiers></_></stages>
  <features>
    <_>
      <rect>
        0 0 11 2</rect></_>
    <_>
      <rect>
        0 3 5 1</rect></_>
    <_>
      <rect>
        0 4 4 1</rect></_>
    <_>
      <rect>
        0 6 11 8</rect></_>
    <_>
      <rect>
        0 7 11 2</rect></_>
    <_>
      <rect>
        0 11 6 2</rect></_>
    <_>
      <rect>
        0 15 11 4</rect></_>
    <_>
      <rect>
        0 16 4 3</rect></_>
    <_>
      <rect>
        0 17 1 3</rect></_>
    <_>
      <rect>
        0 19 5 3</rect></_>
    <_>
      <rect>
        0 19 7 2</rect></_>
    <_>
      <rect>
        0 20 7 3</rect></_>
    <_>
      <rect>
        0 20 11 2</rect></_>
    <_>
      <rect>
        0 22 6 2</rect></_>
    <_>
      <rect>
        1 0 10 2</rect></_>
    <_>
      <rect>
        1 3 5 1</rect></_>
    <_>
      <rect>
        1 10 5 1</rect></_>
    <_>
      <rect>
        1 10 10 2</rect></_>
    <_>
      <rect>
        1 13 10 4</rect></_>
    <_>
      <rect>
        1 13 11 5</rect></_>
    <_>
      <rect>
        1 14 6 3</rect></_>
    <_>
      <rect>
        1 15 8 3</rect></_>
    <_>
      <rect>
        1 17 9 2</rect></_>
    <_>
      <rect>
        1 18 5 2</rect></_>
    <_>
      <rect>
        1 20 11 2</rect></_>
    <_>
      <rect>
        1 21 6 2</rect></_>
    <_>
      <rect>
        1 21 10 3</rect></_>
    <_>
      <rect>
        2 3 5 1</rect></_>
    <_>
      <rect>
        2 6 11 3</rect></_>
    <_>
      <rect>
        2 18 11 2</rect></_>
    <_>
      <rect>
        2 23 7 2</rect></_>
    <_>
      <rect>
        2 23 9 2</rect></_>
    <_>
      <rect>
        4 0 10 2</rect></_>
    <_>
      <rect>
        4 3 5 1</rect></_>
    <_>
      <rect>
        4 9 5 1</rect></_>
    <_>
      <rect>
        7 9 5 1</rect></_>
    <_>
      <rect>
        7 15 9 2</rect></_>
    <_>
      <rect>
        7 19 9 3</rect></_>
    <_>
      <rect>
        8 0 9 2</rect></_>
    <_>
      <rect>
        8 18 8 2</rect></_>
    <_>
      <rect>
        10 9 5 1</rect></_>
    <_>
      <rect>
        10 22 8 2</rect></_>
    <_>
      <rect>
        10 24 5 1</rect></_>
    <_>
      <rect>
        11 22 8 2</rect></_>
    <_>
      <rect>
        13 20 7 3</rect></_>
    <_>
      <rect>
        14 20 7 2</rect></_>
    <_>
      <rect>
        14 21 7 2</rect></_>
    <_>
      <rect>
        15 0 6 1</rect></_>
    <_>
      <rect>
        16 11 6 4</rect></_>
    <_>
      <rect>
        16 17 6 1</rect></_>
    <_>
      <rect>
        16 18 6 2</rect></_>
    <_>
      <rect>
        16 27 6 1</rect></_>
    <_>
      <rect>
        18 27 5 1</rect></_>
    <_>
      <rect>
        19 0 5 1</rect></_>
    <_>
      <rect>
        19 27 4 1</rect></_>
    <_>
      <rect>
        19 27 5 1</rect></_>
    <_>
      <rect>
        20 24 5 2</rect></_>
    <_>
      <rect>
        20 26 5 1</rect></_>
    <_>
      <rect>
        20 27 5 1</rect></_>
    <_>
      <rect>
        23 26 4 1</rect></_>
    <_>
      <rect>
        26 26 3 1</rect></_>
    <_>
      <rect>
        28 17 2 3</rect></_></features></cascade>
</opencv_storage>
