<?xml version="1.0"?>
<opencv_storage>
<cascade>
  <stageType>BOOST</stageType>
  <featureType>LBP</featureType>
  <height>30</height>
  <width>35</width>
  <stageParams>
    <boostType>GAB</boostType>
    <minHitRate>9.9500000476837158e-001</minHitRate>
    <maxFalseAlarm>5.0000000000000000e-001</maxFalseAlarm>
    <weightTrimRate>9.4999999999999996e-001</weightTrimRate>
    <maxDepth>1</maxDepth>
    <maxWeakCount>100</maxWeakCount></stageParams>
  <featureParams>
    <maxCatCount>256</maxCatCount>
    <featSize>1</featSize></featureParams>
  <stageNum>23</stageNum>
  <stages>
    <!-- stage 0 -->
    <_>
      <maxWeakCount>2</maxWeakCount>
      <stageThreshold>-8.9219890534877777e-002</stageThreshold>
      <weakClassifiers>
        <_>
          <internalNodes>
            0 -1 18 -644755201 -721338220 285294749 520718677
            -1600993089 -1199538165 134748303 520816840</internalNodes>
          <leafValues>
            -9.8206275701522827e-001 8.8235294818878174e-001</leafValues></_>
        <_>
          <internalNodes>
            0 -1 9 -1728032294 -209567696 419582399 1459683649
            -2147448646 -1433763702 151029999 -1685372758</internalNodes>
          <leafValues>
            -9.7157281637191772e-001 9.0279573202133179e-001</leafValues></_></weakClassifiers></_>
    <!-- stage 1 -->
    <_>
      <maxWeakCount>2</maxWeakCount>
      <stageThreshold>-9.1989278793334961e-002</stageThreshold>
      <weakClassifiers>
        <_>
          <internalNodes>
            0 -1 56 -745483810 -145615471 -1878978401 1465246027
            -2012702022 -612314998 -2130146869 -13904993</internalNodes>
          <leafValues>
            -9.4748359918594360e-001 8.9147287607192993e-001</leafValues></_>
        <_>
          <internalNodes>
            0 -1 35 19747513 -586088396 151065959 1536627977 134387899
            -645856566 16833243 462128011</internalNodes>
          <leafValues>
            -9.8177814483642578e-001 8.5549432039260864e-001</leafValues></_></weakClassifiers></_>
    <!-- stage 2 -->
    <_>
      <maxWeakCount>2</maxWeakCount>
      <stageThreshold>-1.6319869086146355e-002</stageThreshold>
      <weakClassifiers>
        <_>
          <internalNodes>
            0 -1 36 -134479875 -541065224 -50245155 -14820267 -33554433
            -1165246465 -2238209 -539108131</internalNodes>
          <leafValues>
            -8.3967936038970947e-001 9.4092828035354614e-001</leafValues></_>
        <_>
          <internalNodes>
            0 -1 20 -179642917 -146161212 -805203525 -49159935 562616731
            -1163804517 176195979 522963371</internalNodes>
          <leafValues>
            -9.5599830150604248e-001 8.2335948944091797e-001</leafValues></_></weakClassifiers></_>
    <!-- stage 3 -->
    <_>
      <maxWeakCount>2</maxWeakCount>
      <stageThreshold>-1.0428775101900101e-001</stageThreshold>
      <weakClassifiers>
        <_>
          <internalNodes>
            0 -1 31 -577138286 -552402664 -921108139 -217853773
            -2012706373 -601685862 -1731998277 -5522549</internalNodes>
          <leafValues>
            -8.9059078693389893e-001 8.4108525514602661e-001</leafValues></_>
        <_>
          <internalNodes>
            0 -1 44 -172304418 -582499449 -988595049 -708328419
            -1853702854 -339541881 -2019539765 -73426229</internalNodes>
          <leafValues>
            -9.3106657266616821e-001 7.8630304336547852e-001</leafValues></_></weakClassifiers></_>
    <!-- stage 4 -->
    <_>
      <maxWeakCount>2</maxWeakCount>
      <stageThreshold>-4.5763835310935974e-002</stageThreshold>
      <weakClassifiers>
        <_>
          <internalNodes>
            0 -1 49 -1 -115344200 -536871427 -11711212 -1074003969 -1793
            -536870945 -543177475</internalNodes>
          <leafValues>
            -8.5416668653488159e-001 8.8640975952148438e-001</leafValues></_>
        <_>
          <internalNodes>
            0 -1 23 -74787622 -579616656 1225248885 -38043439 -754937383
            -91651439 1140879371 -67149685</internalNodes>
          <leafValues>
            -9.0751612186431885e-001 8.0840283632278442e-001</leafValues></_></weakClassifiers></_>
    <!-- stage 5 -->
    <_>
      <maxWeakCount>2</maxWeakCount>
      <stageThreshold>-3.9551705121994019e-002</stageThreshold>
      <weakClassifiers>
        <_>
          <internalNodes>
            0 -1 17 -32779792 -184463216 136367453 -149879535
            -1207721293 -1165327703 -95175985 -74450517</internalNodes>
          <leafValues>
            -9.1183292865753174e-001 7.7490776777267456e-001</leafValues></_>
        <_>
          <internalNodes>
            0 -1 61 -1786130221 -243269552 1359057365 -712179712
            -1988058658 -1189080936 -535639829 -1685356339</internalNodes>
          <leafValues>
            -7.8214168548583984e-001 8.7228125333786011e-001</leafValues></_></weakClassifiers></_>
    <!-- stage 6 -->
    <_>
      <maxWeakCount>2</maxWeakCount>
      <stageThreshold>-1.5208743512630463e-001</stageThreshold>
      <weakClassifiers>
        <_>
          <internalNodes>
            0 -1 6 -255798820 -607006579 -2147418079 -95178375 537057375
            -1023107061 -2100479861 -69209153</internalNodes>
          <leafValues>
            -9.2399048805236816e-001 7.5362318754196167e-001</leafValues></_>
        <_>
          <internalNodes>
            0 -1 45 -47987201 -542826232 -2094757027 -148701135
            -1575974657 -794748249 155230351 -643071845</internalNodes>
          <leafValues>
            -8.3677810430526733e-001 7.7190303802490234e-001</leafValues></_></weakClassifiers></_>
    <!-- stage 7 -->
    <_>
      <maxWeakCount>3</maxWeakCount>
      <stageThreshold>-7.2395074367523193e-001</stageThreshold>
      <weakClassifiers>
        <_>
          <internalNodes>
            0 -1 22 -4456453 -9 -1 -1 -1146421317 -4194305 255852543
            -2097153</internalNodes>
          <leafValues>
            -7.4658870697021484e-001 8.9130437374114990e-001</leafValues></_>
        <_>
          <internalNodes>
            0 -1 57 -611855365 -335511358 17913309 -845967212 -669867526
            -2004713472 -1962104675 -7487335</internalNodes>
          <leafValues>
            -7.8746467828750610e-001 7.9198586940765381e-001</leafValues></_>
        <_>
          <internalNodes>
            0 -1 52 -1781410861 -184450992 554725845 -652508928
            596345531 -1432861640 171498171 -879896439</internalNodes>
          <leafValues>
            -7.6934790611267090e-001 8.3049154281616211e-001</leafValues></_></weakClassifiers></_>
    <!-- stage 8 -->
    <_>
      <maxWeakCount>3</maxWeakCount>
      <stageThreshold>-8.5082560777664185e-001</stageThreshold>
      <weakClassifiers>
        <_>
          <internalNodes>
            0 -1 54 -1282671105 -170176313 1279343061 -1249672909
            -1978486376 -1110065021 730984399 -69479411</internalNodes>
          <leafValues>
            -8.0973452329635620e-001 7.5431859493255615e-001</leafValues></_>
        <_>
          <internalNodes>
            0 -1 33 -2146331942 -544628608 17367897 -49479488 151803
            -1413316534 503359707 -644091687</internalNodes>
          <leafValues>
            -7.8483712673187256e-001 7.2896248102188110e-001</leafValues></_>
        <_>
          <internalNodes>
            0 -1 16 1599452575 1398735506 1364732911 2098569605
            -925458001 -970948477 -929981781 -82450933</internalNodes>
          <leafValues>
            -7.7005356550216675e-001 7.6506382226943970e-001</leafValues></_></weakClassifiers></_>
    <!-- stage 9 -->
    <_>
      <maxWeakCount>2</maxWeakCount>
      <stageThreshold>5.6071083992719650e-002</stageThreshold>
      <weakClassifiers>
        <_>
          <internalNodes>
            0 -1 30 -1 -171507636 -9 2147483639 -1 -806422546 -356246085
            -7013</internalNodes>
          <leafValues>
            -7.3843055963516235e-001 8.2773107290267944e-001</leafValues></_>
        <_>
          <internalNodes>
            0 -1 0 2068169205 -1143885046 1543524411 -678693792
            -1054804821 -1998395318 1102703275 -892621686</internalNodes>
          <leafValues>
            -6.9030749797821045e-001 7.9450166225433350e-001</leafValues></_></weakClassifiers></_>
    <!-- stage 10 -->
    <_>
      <maxWeakCount>3</maxWeakCount>
      <stageThreshold>-7.2870665788650513e-001</stageThreshold>
      <weakClassifiers>
        <_>
          <internalNodes>
            0 -1 7 -8707 -2105987 -33281 -8835 -8388609 -268435457 -1
            -8225</internalNodes>
          <leafValues>
            -6.7984187602996826e-001 7.9443252086639404e-001</leafValues></_>
        <_>
          <internalNodes>
            0 -1 38 -1078985733 -1078070600 1600118773 -537134600
            522973179 -1078988802 1440219135 -573571585</internalNodes>
          <leafValues>
            -5.9238541126251221e-001 8.2321357727050781e-001</leafValues></_>
        <_>
          <internalNodes>
            0 -1 10 -669863682 -149582196 26486045 -66461131 1912815063
            -1162901241 6869001 -71312498</internalNodes>
          <leafValues>
            -8.7207829952239990e-001 6.0840648412704468e-001</leafValues></_></weakClassifiers></_>
    <!-- stage 11 -->
    <_>
      <maxWeakCount>4</maxWeakCount>
      <stageThreshold>-2.1941617131233215e-001</stageThreshold>
      <weakClassifiers>
        <_>
          <internalNodes>
            0 -1 29 -1854057542 -717127929 -2146662027 1637048323
            -713313074 -48391652 -112464502 -74188154</internalNodes>
          <leafValues>
            -8.5492229461669922e-001 6.0817718505859375e-001</leafValues></_>
        <_>
          <internalNodes>
            0 -1 55 -44886313 -725215072 -763142985 1224835276
            1677760672 -1199044440 -25130530 -550836198</internalNodes>
          <leafValues>
            -7.3337125778198242e-001 7.1669822931289673e-001</leafValues></_>
        <_>
          <internalNodes>
            0 -1 13 -209612581 -720633848 459346005 -16121599 -390946423
            -426999680 1510154387 -612122561</internalNodes>
          <leafValues>
            -6.9743299484252930e-001 7.5909960269927979e-001</leafValues></_>
        <_>
          <internalNodes>
            0 -1 14 25416189 -515555224 1358957047 -917944183 192973050
            -1465859582 419529643 1271830939</internalNodes>
          <leafValues>
            -8.4029173851013184e-001 6.2270426750183105e-001</leafValues></_></weakClassifiers></_>
    <!-- stage 12 -->
    <_>
      <maxWeakCount>3</maxWeakCount>
      <stageThreshold>-8.4504526853561401e-001</stageThreshold>
      <weakClassifiers>
        <_>
          <internalNodes>
            0 -1 46 2035542975 -874348079 -1275057839 -1417263984
            565100675 -356843518 -158751089 -276573721</internalNodes>
          <leafValues>
            -7.3835921287536621e-001 6.8965518474578857e-001</leafValues></_>
        <_>
          <internalNodes>
            0 -1 43 -1142583112 -179761081 712091325 -375665785
            -771577665 -1173745700 -384451925 -386925669</internalNodes>
          <leafValues>
            -8.0354529619216919e-001 6.3559997081756592e-001</leafValues></_>
        <_>
          <internalNodes>
            0 -1 24 -149689222 -177979368 831857631 -583427705
            -1064319267 1926769062 1493225692 -577047882</internalNodes>
          <leafValues>
            -7.3115509748458862e-001 7.0719593763351440e-001</leafValues></_></weakClassifiers></_>
    <!-- stage 13 -->
    <_>
      <maxWeakCount>2</maxWeakCount>
      <stageThreshold>-2.4356594681739807e-001</stageThreshold>
      <weakClassifiers>
        <_>
          <internalNodes>
            0 -1 63 1359664090 -1014443840 -947744749 -648740587
            -929318753 -1196945368 -385623585 -540178261</internalNodes>
          <leafValues>
            -7.9227054119110107e-001 6.3506263494491577e-001</leafValues></_>
        <_>
          <internalNodes>
            0 -1 5 -635774470 -844917363 -658357213 -112492529
            -2078618817 -1637127917 -737014707 -8308213</internalNodes>
          <leafValues>
            -8.7862855195999146e-001 5.6128883361816406e-001</leafValues></_></weakClassifiers></_>
    <!-- stage 14 -->
    <_>
      <maxWeakCount>3</maxWeakCount>
      <stageThreshold>-6.0451543331146240e-001</stageThreshold>
      <weakClassifiers>
        <_>
          <internalNodes>
            0 -1 51 -778963973 -1816964944 71549631 -619247579
            2013270429 -123015008 1107339453 -884029312</internalNodes>
          <leafValues>
            -7.5845408439636230e-001 6.1001789569854736e-001</leafValues></_>
        <_>
          <internalNodes>
            0 -1 26 1975873503 -655361 2113796095 -1 -10616833 -33751041
            -2228225 -45481985</internalNodes>
          <leafValues>
            -5.8135157823562622e-001 8.0641680955886841e-001</leafValues></_>
        <_>
          <internalNodes>
            0 -1 57 1238983167 -1712579332 -2013231345 -1698181008
            1536466367 -29670166 -218044883 -3298942</internalNodes>
          <leafValues>
            -6.3318175077438354e-001 7.4768465757369995e-001</leafValues></_></weakClassifiers></_>
    <!-- stage 15 -->
    <_>
      <maxWeakCount>3</maxWeakCount>
      <stageThreshold>-6.7487120628356934e-001</stageThreshold>
      <weakClassifiers>
        <_>
          <internalNodes>
            0 -1 8 -216706699 -118761167 1880104979 -158920423
            -930852181 -234717088 -251533733 -68953214</internalNodes>
          <leafValues>
            -6.9803065061569214e-001 6.7054265737533569e-001</leafValues></_>
        <_>
          <internalNodes>
            0 -1 2 -1316826918 -581631784 268551441 -644788404
            -1607881314 -1954021214 155224463 -643856215</internalNodes>
          <leafValues>
            -7.0288753509521484e-001 6.5014791488647461e-001</leafValues></_>
        <_>
          <internalNodes>
            0 -1 58 -1079254021 -540016914 1073609727 -35808772
            -1073841666 -1360340738 257359871 -807404037</internalNodes>
          <leafValues>
            -6.2698853015899658e-001 7.7108305692672729e-001</leafValues></_></weakClassifiers></_>
    <!-- stage 16 -->
    <_>
      <maxWeakCount>4</maxWeakCount>
      <stageThreshold>-2.3142068088054657e-001</stageThreshold>
      <weakClassifiers>
        <_>
          <internalNodes>
            0 -1 37 -67 -4 -3 -538970636 -1025 -37753640 -11012609
            -540025640</internalNodes>
          <leafValues>
            -6.3786005973815918e-001 6.9199180603027344e-001</leafValues></_>
        <_>
          <internalNodes>
            0 -1 59 -779890054 -1954279160 24252423 1531252885
            2052322743 -1542977268 -1044346421 -837699445</internalNodes>
          <leafValues>
            -8.0118525028228760e-001 5.5454313755035400e-001</leafValues></_>
        <_>
          <internalNodes>
            0 -1 48 -783990381 -615677952 1564546327 -820125608
            -502631693 -1428110320 1361093267 -645685078</internalNodes>
          <leafValues>
            -6.8980079889297485e-001 6.6574412584304810e-001</leafValues></_>
        <_>
          <internalNodes>
            0 -1 40 285258714 -745897070 1415610803 -2122086242
            -381560629 16827400 -489240349 -41565521</internalNodes>
          <leafValues>
            -7.8815484046936035e-001 5.9924107789993286e-001</leafValues></_></weakClassifiers></_>
    <!-- stage 17 -->
    <_>
      <maxWeakCount>4</maxWeakCount>
      <stageThreshold>-2.1736289560794830e-001</stageThreshold>
      <weakClassifiers>
        <_>
          <internalNodes>
            0 -1 53 -665484397 -786624481 67175825 1498014111 302559984
            -1199427280 50340274 -270867349</internalNodes>
          <leafValues>
            -7.1559631824493408e-001 6.3128489255905151e-001</leafValues></_>
        <_>
          <internalNodes>
            0 -1 4 -549203686 -581480174 1359042013 -250539648 834699677
            -1163755504 1657859227 -251006148</internalNodes>
          <leafValues>
            -7.0053458213806152e-001 6.2606000900268555e-001</leafValues></_>
        <_>
          <internalNodes>
            0 -1 32 849565107 -42917538 -1851778167 -16242688 344096953
            1883243162 1099016687 -611516084</internalNodes>
          <leafValues>
            -7.3095989227294922e-001 6.0652744770050049e-001</leafValues></_>
        <_>
          <internalNodes>
            0 -1 47 -720170534 -142065662 1493308379 -578742012
            402658282 -873870316 839033141 -586540533</internalNodes>
          <leafValues>
            -7.3435401916503906e-001 6.4513826370239258e-001</leafValues></_></weakClassifiers></_>
    <!-- stage 18 -->
    <_>
      <maxWeakCount>3</maxWeakCount>
      <stageThreshold>-5.4306423664093018e-001</stageThreshold>
      <weakClassifiers>
        <_>
          <internalNodes>
            0 -1 21 -1048577 -2 -2051 -2097153 -1114113 -577830918 -1
            -3407873</internalNodes>
          <leafValues>
            -6.3340121507644653e-001 7.0124483108520508e-001</leafValues></_>
        <_>
          <internalNodes>
            0 -1 42 -1055659681 688359178 1403018655 -1143668600 9805278
            412123607 278962623 -1724716405</internalNodes>
          <leafValues>
            -6.5101909637451172e-001 7.3497211933135986e-001</leafValues></_>
        <_>
          <internalNodes>
            0 -1 60 1073741823 2127223034 2139095035 -539623428
            -16777221 -1421017092 -36175873 -572522498</internalNodes>
          <leafValues>
            -5.9328997135162354e-001 7.4183833599090576e-001</leafValues></_></weakClassifiers></_>
    <!-- stage 19 -->
    <_>
      <maxWeakCount>4</maxWeakCount>
      <stageThreshold>-4.3052932620048523e-001</stageThreshold>
      <weakClassifiers>
        <_>
          <internalNodes>
            0 -1 28 1365296087 1628522759 -2092938731 1058056967
            -636680051 8388615 -2031012663 -349142791</internalNodes>
          <leafValues>
            -7.3566085100173950e-001 5.6293708086013794e-001</leafValues></_>
        <_>
          <internalNodes>
            0 -1 25 -914112264 2051342936 -2147479209 278468765
            -2143247221 -1470097406 1581257657 1497620643</internalNodes>
          <leafValues>
            -8.1763470172882080e-001 5.5291992425918579e-001</leafValues></_>
        <_>
          <internalNodes>
            0 -1 1 550713139 -671054799 4194309 1975844875 -385711982
            -796876796 1880205896 -539151862</internalNodes>
          <leafValues>
            -7.1303308010101318e-001 6.4480108022689819e-001</leafValues></_>
        <_>
          <internalNodes>
            0 -1 64 -1047989924 1488978052 -2013167607 -1223375871
            -2147483134 -635830247 956334083 -886341080</internalNodes>
          <leafValues>
            -8.2063275575637817e-001 5.7861119508743286e-001</leafValues></_></weakClassifiers></_>
    <!-- stage 20 -->
    <_>
      <maxWeakCount>4</maxWeakCount>
      <stageThreshold>-1.3671275973320007e-001</stageThreshold>
      <weakClassifiers>
        <_>
          <internalNodes>
            0 -1 27 863222783 -142872549 603700219 1005845503 -397621377
            2063581124 -1157906433 1744548591</internalNodes>
          <leafValues>
            -6.4948451519012451e-001 7.0081967115402222e-001</leafValues></_>
        <_>
          <internalNodes>
            0 -1 61 1344243807 -889169776 1214251555 -1915909944 25635
            1347094784 1074031118 -921744708</internalNodes>
          <leafValues>
            -7.2199165821075439e-001 6.4966303110122681e-001</leafValues></_>
        <_>
          <internalNodes>
            0 -1 41 -533719665 -1072689380 -1811805140 -1583633276 2068
            4718722 536903692 -1675952085</internalNodes>
          <leafValues>
            -7.1563625335693359e-001 6.4886182546615601e-001</leafValues></_>
        <_>
          <internalNodes>
            0 -1 34 269815093 -251590079 -1560248191 -670515197
            1084752555 -402652874 -259347472 -762240823</internalNodes>
          <leafValues>
            -7.6440262794494629e-001 6.5042930841445923e-001</leafValues></_></weakClassifiers></_>
    <!-- stage 21 -->
    <_>
      <maxWeakCount>4</maxWeakCount>
      <stageThreshold>-2.3645639419555664e-001</stageThreshold>
      <weakClassifiers>
        <_>
          <internalNodes>
            0 -1 50 -1440041989 -355538262 526201725 1498021364
            -1078985989 -357830918 1602156031 -49423137</internalNodes>
          <leafValues>
            -6.0617762804031372e-001 7.4945056438446045e-001</leafValues></_>
        <_>
          <internalNodes>
            0 -1 15 -784003058 268530441 16852289 -794091487 -2126479355
            -805235200 -1040142327 -1165811197</internalNodes>
          <leafValues>
            -7.9782414436340332e-001 5.8918112516403198e-001</leafValues></_>
        <_>
          <internalNodes>
            0 -1 12 1073807913 -1319894972 -788257521 1435600901
            536985737 16777221 1241616523 1511621005</internalNodes>
          <leafValues>
            -7.8892087936401367e-001 5.9701132774353027e-001</leafValues></_>
        <_>
          <internalNodes>
            0 -1 3 303278239 1431671171 1347804210 -669970047 238553
            420012064 1079108346 453583752</internalNodes>
          <leafValues>
            -7.8509414196014404e-001 6.2358987331390381e-001</leafValues></_></weakClassifiers></_>
    <!-- stage 22 -->
    <_>
      <maxWeakCount>4</maxWeakCount>
      <stageThreshold>-2.8047707676887512e-001</stageThreshold>
      <weakClassifiers>
        <_>
          <internalNodes>
            0 -1 19 1414481945 201392130 -2126446335 1690664960
            1434452996 -1869545391 -1262993149 -600112602</internalNodes>
          <leafValues>
            -6.8564921617507935e-001 6.1423218250274658e-001</leafValues></_>
        <_>
          <internalNodes>
            0 -1 39 1564557437 1561855116 1075152443 1506088960
            1480692100 -2145255158 1081763 1313399690</internalNodes>
          <leafValues>
            -7.5256156921386719e-001 5.4204386472702026e-001</leafValues></_>
        <_>
          <internalNodes>
            0 -1 62 377733627 -799342076 1050964 -1020164087 -2147434292
            -2138275800 170168056 -586593748</internalNodes>
          <leafValues>
            -6.8839091062545776e-001 6.0982978343963623e-001</leafValues></_>
        <_>
          <internalNodes>
            0 -1 11 52546887 822165506 -1601688306 -1458887296
            -2147482621 -2147483647 536936962 8499338</internalNodes>
          <leafValues>
            -7.4670153856277466e-001 5.9908044338226318e-001</leafValues></_></weakClassifiers></_></stages>
  <features>
    <_>
      <rect>
        0 0 11 2</rect></_>
    <_>
      <rect>
        0 2 11 6</rect></_>
    <_>
      <rect>
        0 4 4 1</rect></_>
    <_>
      <rect>
        0 5 11 3</rect></_>
    <_>
      <rect>
        0 10 11 2</rect></_>
    <_>
      <rect>
        0 15 7 3</rect></_>
    <_>
      <rect>
        0 16 4 3</rect></_>
    <_>
      <rect>
        0 17 5 3</rect></_>
    <_>
      <rect>
        0 17 6 3</rect></_>
    <_>
      <rect>
        0 21 10 2</rect></_>
    <_>
      <rect>
        0 23 5 2</rect></_>
    <_>
      <rect>
        0 23 10 2</rect></_>
    <_>
      <rect>
        0 26 5 1</rect></_>
    <_>
      <rect>
        1 3 5 1</rect></_>
    <_>
      <rect>
        1 10 5 1</rect></_>
    <_>
      <rect>
        1 12 11 4</rect></_>
    <_>
      <rect>
        1 15 11 4</rect></_>
    <_>
      <rect>
        1 17 7 2</rect></_>
    <_>
      <rect>
        1 19 7 2</rect></_>
    <_>
      <rect>
        1 19 8 3</rect></_>
    <_>
      <rect>
        1 20 5 2</rect></_>
    <_>
      <rect>
        1 20 11 2</rect></_>
    <_>
      <rect>
        1 21 6 2</rect></_>
    <_>
      <rect>
        1 22 7 2</rect></_>
    <_>
      <rect>
        2 0 10 2</rect></_>
    <_>
      <rect>
        2 3 5 1</rect></_>
    <_>
      <rect>
        2 6 11 8</rect></_>
    <_>
      <rect>
        2 10 11 4</rect></_>
    <_>
      <rect>
        2 14 11 5</rect></_>
    <_>
      <rect>
        2 18 11 4</rect></_>
    <_>
      <rect>
        2 21 11 1</rect></_>
    <_>
      <rect>
        3 15 10 2</rect></_>
    <_>
      <rect>
        4 1 10 2</rect></_>
    <_>
      <rect>
        4 3 5 1</rect></_>
    <_>
      <rect>
        4 8 7 7</rect></_>
    <_>
      <rect>
        4 18 10 2</rect></_>
    <_>
      <rect>
        4 23 7 2</rect></_>
    <_>
      <rect>
        4 25 5 1</rect></_>
    <_>
      <rect>
        5 3 5 1</rect></_>
    <_>
      <rect>
        5 3 10 3</rect></_>
    <_>
      <rect>
        5 9 10 7</rect></_>
    <_>
      <rect>
        5 22 8 2</rect></_>
    <_>
      <rect>
        7 0 9 2</rect></_>
    <_>
      <rect>
        10 13 8 3</rect></_>
    <_>
      <rect>
        10 18 7 3</rect></_>
    <_>
      <rect>
        11 22 8 2</rect></_>
    <_>
      <rect>
        13 20 7 3</rect></_>
    <_>
      <rect>
        14 0 6 1</rect></_>
    <_>
      <rect>
        14 6 6 1</rect></_>
    <_>
      <rect>
        14 21 7 2</rect></_>
    <_>
      <rect>
        15 9 5 1</rect></_>
    <_>
      <rect>
        15 23 5 1</rect></_>
    <_>
      <rect>
        16 1 5 1</rect></_>
    <_>
      <rect>
        16 17 6 1</rect></_>
    <_>
      <rect>
        16 18 6 2</rect></_>
    <_>
      <rect>
        16 27 6 1</rect></_>
    <_>
      <rect>
        17 17 6 3</rect></_>
    <_>
      <rect>
        18 27 5 1</rect></_>
    <_>
      <rect>
        19 6 5 1</rect></_>
    <_>
      <rect>
        19 26 5 1</rect></_>
    <_>
      <rect>
        20 26 5 1</rect></_>
    <_>
      <rect>
        20 27 5 1</rect></_>
    <_>
      <rect>
        22 0 4 1</rect></_>
    <_>
      <rect>
        23 26 4 1</rect></_>
    <_>
      <rect>
        26 26 3 1</rect></_></features></cascade>
</opencv_storage>
