<?xml version="1.0"?>
<opencv_storage>
<cascade>
  <stageType>BOOST</stageType>
  <featureType>LBP</featureType>
  <height>55</height>
  <width>50</width>
  <stageParams>
    <boostType>GAB</boostType>
    <minHitRate>9.9500000476837158e-001</minHitRate>
    <maxFalseAlarm>5.0000000000000000e-001</maxFalseAlarm>
    <weightTrimRate>9.4999999999999996e-001</weightTrimRate>
    <maxDepth>1</maxDepth>
    <maxWeakCount>100</maxWeakCount></stageParams>
  <featureParams>
    <maxCatCount>256</maxCatCount>
    <featSize>1</featSize></featureParams>
  <stageNum>22</stageNum>
  <stages>
    <!-- stage 0 -->
    <_>
      <maxWeakCount>3</maxWeakCount>
      <stageThreshold>-8.4558928012847900e-001</stageThreshold>
      <weakClassifiers>
        <_>
          <internalNodes>
            0 -1 24 -196630 -524297 -268435510 -181 -17 -33554433
            -2097169 -1</internalNodes>
          <leafValues>
            -7.8969073295593262e-001 8.7479937076568604e-001</leafValues></_>
        <_>
          <internalNodes>
            0 -1 79 -682241635 -715554539 293717392 -41316285
            -2138862965 1702920195 1476399680 1439955947</internalNodes>
          <leafValues>
            -7.0288640260696411e-001 7.2549438476562500e-001</leafValues></_>
        <_>
          <internalNodes>
            0 -1 36 -1059921272 -1342021624 536920130 -1030107101
            -1035747157 -2129950574 -242440245 -807406693</internalNodes>
          <leafValues>
            -7.6593816280364990e-001 6.4698785543441772e-001</leafValues></_></weakClassifiers></_>
    <!-- stage 1 -->
    <_>
      <maxWeakCount>4</maxWeakCount>
      <stageThreshold>-3.1205743551254272e-001</stageThreshold>
      <weakClassifiers>
        <_>
          <internalNodes>
            0 -1 10 -105971730 -228919 -8388674 -4718613 -269484033
            -91750401 -196609 -1048609</internalNodes>
          <leafValues>
            -7.2708755731582642e-001 8.4116691350936890e-001</leafValues></_>
        <_>
          <internalNodes>
            0 -1 40 -578494470 1562662280 1090573144 805437764
            -909323793 -636714870 -2113824313 -15676246</internalNodes>
          <leafValues>
            -7.2610038518905640e-001 6.8027627468109131e-001</leafValues></_>
        <_>
          <internalNodes>
            0 -1 87 -783027233 -1354163171 419448083 -74381299 369154184
            1485538069 -1836886448 1473349879</internalNodes>
          <leafValues>
            -7.9560726881027222e-001 5.9208464622497559e-001</leafValues></_>
        <_>
          <internalNodes>
            0 -1 22 -1764055542 -988733183 1082245255 -1055923770
            -1599567257 -1148648445 -2113240565 -1915026453</internalNodes>
          <leafValues>
            -8.2976627349853516e-001 5.4904592037200928e-001</leafValues></_></weakClassifiers></_>
    <!-- stage 2 -->
    <_>
      <maxWeakCount>4</maxWeakCount>
      <stageThreshold>-2.3663985729217529e-001</stageThreshold>
      <weakClassifiers>
        <_>
          <internalNodes>
            0 -1 18 -2 -16777221 -350 -5243157 -33 2139095007 -1048609
            -68157481</internalNodes>
          <leafValues>
            -6.6878980398178101e-001 7.4882262945175171e-001</leafValues></_>
        <_>
          <internalNodes>
            0 -1 93 -606342447 -863813621 -1862139584 -544800753
            -1593531212 1879162891 4399104 -206067665</internalNodes>
          <leafValues>
            -6.7306411266326904e-001 6.3748598098754883e-001</leafValues></_>
        <_>
          <internalNodes>
            0 -1 12 -291769649 1107607643 328842 1610617089 -1073523878
            -461373432 -2138845682 -677650001</internalNodes>
          <leafValues>
            -7.1197462081909180e-001 6.1919087171554565e-001</leafValues></_>
        <_>
          <internalNodes>
            0 -1 72 1565588188 1125793792 -2147449783 834142504
            -1073689864 -1190625152 -1559721547 -82650500</internalNodes>
          <leafValues>
            -8.1120622158050537e-001 5.0663858652114868e-001</leafValues></_></weakClassifiers></_>
    <!-- stage 3 -->
    <_>
      <maxWeakCount>4</maxWeakCount>
      <stageThreshold>-3.5605779290199280e-001</stageThreshold>
      <weakClassifiers>
        <_>
          <internalNodes>
            0 -1 41 -1958676066 -971943916 1489568210 -676245248
            -2112837125 -322830334 -636843592 -97796005</internalNodes>
          <leafValues>
            -6.7647057771682739e-001 6.2571430206298828e-001</leafValues></_>
        <_>
          <internalNodes>
            0 -1 34 -1856847361 -68697924 -1877983114 1076244494
            -1275000623 -392167414 1862322316 -213388621</internalNodes>
          <leafValues>
            -7.4786835908889771e-001 5.1784455776214600e-001</leafValues></_>
        <_>
          <internalNodes>
            0 -1 85 -310439677 -180008433 -2138848243 -1044017111
            -1877359613 -1998552887 -1072969438 -112760319</internalNodes>
          <leafValues>
            -6.7743128538131714e-001 5.6668382883071899e-001</leafValues></_>
        <_>
          <internalNodes>
            0 -1 4 -2085183121 -767311855 -788446941 -1002338592
            545259545 -534740992 -528454989 1260454069</internalNodes>
          <leafValues>
            -7.2741758823394775e-001 5.0159728527069092e-001</leafValues></_></weakClassifiers></_>
    <!-- stage 4 -->
    <_>
      <maxWeakCount>4</maxWeakCount>
      <stageThreshold>-1.8017256259918213e-001</stageThreshold>
      <weakClassifiers>
        <_>
          <internalNodes>
            0 -1 77 -239038220 17506436 1048689 889294922 -125245264
            -2013265792 -2113371410 -922189381</internalNodes>
          <leafValues>
            -6.8911916017532349e-001 5.9279775619506836e-001</leafValues></_>
        <_>
          <internalNodes>
            0 -1 75 -779951683 -1861091044 822350225 -788229478
            -922177336 -1911816192 142608536 -616912468</internalNodes>
          <leafValues>
            -6.9621521234512329e-001 5.3358441591262817e-001</leafValues></_>
        <_>
          <internalNodes>
            0 -1 19 -1006395002 1939148956 1073807563 -778886939
            1350680751 -1609269240 813793483 -1865842519</internalNodes>
          <leafValues>
            -7.3689347505569458e-001 5.1087731122970581e-001</leafValues></_>
        <_>
          <internalNodes>
            0 -1 42 -149417283 2079915705 297039741 -1787757000
            1995287519 -817980618 2146893305 1560657920</internalNodes>
          <leafValues>
            -4.8191082477569580e-001 7.1225565671920776e-001</leafValues></_></weakClassifiers></_>
    <!-- stage 5 -->
    <_>
      <maxWeakCount>4</maxWeakCount>
      <stageThreshold>-4.4263142347335815e-001</stageThreshold>
      <weakClassifiers>
        <_>
          <internalNodes>
            0 -1 38 -535637862 -228970158 -1879011308 -268172794
            -2147384677 -1573715440 -670922101 -413465713</internalNodes>
          <leafValues>
            -7.2063493728637695e-001 4.9054223299026489e-001</leafValues></_>
        <_>
          <internalNodes>
            0 -1 80 1737594048 1129119879 -2000657660 -1685782397
            1116711584 -1442495869 -375815150 -1422980389</internalNodes>
          <leafValues>
            -7.0564389228820801e-001 4.2426949739456177e-001</leafValues></_>
        <_>
          <internalNodes>
            0 -1 97 -719134712 -799940535 18 1888035331 -1035959160
            814743681 1610645642 2080395776</internalNodes>
          <leafValues>
            -6.2834012508392334e-001 5.0232028961181641e-001</leafValues></_>
        <_>
          <internalNodes>
            0 -1 54 -754351807 1908506625 1342177861 191599641
            1611399296 536871168 -1065351030 2047262990</internalNodes>
          <leafValues>
            -6.2760186195373535e-001 4.8132708668708801e-001</leafValues></_></weakClassifiers></_>
    <!-- stage 6 -->
    <_>
      <maxWeakCount>5</maxWeakCount>
      <stageThreshold>-6.2300670146942139e-001</stageThreshold>
      <weakClassifiers>
        <_>
          <internalNodes>
            0 -1 51 -6 -335544322 -16846852 -131137 -2052 -8454145
            2095044072 -35651585</internalNodes>
          <leafValues>
            -5.8256882429122925e-001 6.1904764175415039e-001</leafValues></_>
        <_>
          <internalNodes>
            0 -1 2 -269750679 -536936705 -268435459 -857805057
            -1904234497 2147483647 -1342185473 -822362625</internalNodes>
          <leafValues>
            -4.8729422688484192e-001 6.0798221826553345e-001</leafValues></_>
        <_>
          <internalNodes>
            0 -1 89 18870690 537919616 33011 -1056866176 -1744076132
            1326056067 134840480 -577781093</internalNodes>
          <leafValues>
            -5.7130122184753418e-001 5.3109496831893921e-001</leafValues></_>
        <_>
          <internalNodes>
            0 -1 92 -721170153 -1849621218 49182 1544028291 -1055801327
            -402063360 -1861695488 2065930778</internalNodes>
          <leafValues>
            -5.6585049629211426e-001 5.4632568359375000e-001</leafValues></_>
        <_>
          <internalNodes>
            0 -1 103 -1015954550 556793872 -2147430398 -645922683
            -1970667383 981647875 1117913985 -787746661</internalNodes>
          <leafValues>
            -6.2344461679458618e-001 5.3770941495895386e-001</leafValues></_></weakClassifiers></_>
    <!-- stage 7 -->
    <_>
      <maxWeakCount>5</maxWeakCount>
      <stageThreshold>-4.3052437901496887e-001</stageThreshold>
      <weakClassifiers>
        <_>
          <internalNodes>
            0 -1 62 -547586565 -140754947 2147483647 1375690749
            -553845284 -66049 -1610809858 -282944257</internalNodes>
          <leafValues>
            -3.9928057789802551e-001 6.9565218687057495e-001</leafValues></_>
        <_>
          <internalNodes>
            0 -1 1 -1028718918 -68235530 -276824068 -738332692
            -277086722 -285212673 1740963316 -197663515</internalNodes>
          <leafValues>
            -4.5044764876365662e-001 6.2409067153930664e-001</leafValues></_>
        <_>
          <internalNodes>
            0 -1 98 2147409834 754909119 -17858781 -537395403
            -1611673638 1331691511 -1279821869 -1483735253</internalNodes>
          <leafValues>
            -4.8622176051139832e-001 5.9878534078598022e-001</leafValues></_>
        <_>
          <internalNodes>
            0 -1 102 -594290724 -1173814528 16941136 -1056882432
            1147502728 134283296 152141980 -481566165</internalNodes>
          <leafValues>
            -5.7428544759750366e-001 5.2556687593460083e-001</leafValues></_>
        <_>
          <internalNodes>
            0 -1 110 -263385059 1397309573 1090584838 1410760712
            -1056896828 -1601699840 407666824 1913154434</internalNodes>
          <leafValues>
            -6.7983430624008179e-001 4.7541195154190063e-001</leafValues></_></weakClassifiers></_>
    <!-- stage 8 -->
    <_>
      <maxWeakCount>5</maxWeakCount>
      <stageThreshold>-6.9748717546463013e-001</stageThreshold>
      <weakClassifiers>
        <_>
          <internalNodes>
            0 -1 82 -134480048 1060110080 -65552 2000682928 -245768
            -299892741 1475826610 -675291749</internalNodes>
          <leafValues>
            -4.8260870575904846e-001 5.9259259700775146e-001</leafValues></_>
        <_>
          <internalNodes>
            0 -1 45 -670120374 403980416 33554433 285216896 608411663
            -2147352575 -498933617 -244866933</internalNodes>
          <leafValues>
            -5.6407624483108521e-001 4.8808741569519043e-001</leafValues></_>
        <_>
          <internalNodes>
            0 -1 13 -139460822 -340853142 2139058840 -1218840716
            -1627586621 1324351476 930510292 -975178542</internalNodes>
          <leafValues>
            -5.0787425041198730e-001 5.9860342741012573e-001</leafValues></_>
        <_>
          <internalNodes>
            0 -1 37 -754867064 -1787564015 -1873723225 1636929601
            -1065320032 271581314 142715057 1631764569</internalNodes>
          <leafValues>
            -7.8045135736465454e-001 3.7719324231147766e-001</leafValues></_>
        <_>
          <internalNodes>
            0 -1 49 -209002240 -1056829436 262146 -1166934016
            -2147350520 17301504 40960 -1814886400</internalNodes>
          <leafValues>
            -5.4415559768676758e-001 5.8151590824127197e-001</leafValues></_></weakClassifiers></_>
    <!-- stage 9 -->
    <_>
      <maxWeakCount>6</maxWeakCount>
      <stageThreshold>-1.0227800607681274e+000</stageThreshold>
      <weakClassifiers>
        <_>
          <internalNodes>
            0 -1 60 1577041883 2143182584 -1073824001 -484528132
            -553755432 -1075839108 -67174706 -552940386</internalNodes>
          <leafValues>
            -4.3610548973083496e-001 6.1300814151763916e-001</leafValues></_>
        <_>
          <internalNodes>
            0 -1 56 -804765286 1360220160 -1895824940 -544210666
            1744929210 -2129985307 12682584 -115354897</internalNodes>
          <leafValues>
            -5.5911201238632202e-001 4.8360669612884521e-001</leafValues></_>
        <_>
          <internalNodes>
            0 -1 26 -301617489 -1719572714 490749953 -721365760
            -2147441685 -1207959423 -897488754 226741419</internalNodes>
          <leafValues>
            -4.8160743713378906e-001 5.4525369405746460e-001</leafValues></_>
        <_>
          <internalNodes>
            0 -1 11 -129249876 -1054207999 1073856778 -1067843327
            813703202 1207959552 536904278 -788281214</internalNodes>
          <leafValues>
            -5.4052841663360596e-001 5.1574987173080444e-001</leafValues></_>
        <_>
          <internalNodes>
            0 -1 100 -188497095 1762689040 273 1359069248 1107476971
            721420930 453160992 -783550327</internalNodes>
          <leafValues>
            -6.2326437234878540e-001 4.2499729990959167e-001</leafValues></_>
        <_>
          <internalNodes>
            0 -1 31 1258286811 418311931 1795140462 1677651919
            1728026622 -604012547 -336077077 -1476432641</internalNodes>
          <leafValues>
            -4.8115929961204529e-001 5.8819353580474854e-001</leafValues></_></weakClassifiers></_>
    <!-- stage 10 -->
    <_>
      <maxWeakCount>6</maxWeakCount>
      <stageThreshold>-1.2744516134262085e+000</stageThreshold>
      <weakClassifiers>
        <_>
          <internalNodes>
            0 -1 67 1561596885 1359283493 427819153 16793624 -2136997880
            -1971191808 671415688 -117253816</internalNodes>
          <leafValues>
            -5.6032168865203857e-001 5.0476193428039551e-001</leafValues></_>
        <_>
          <internalNodes>
            0 -1 53 1485854852 -50191935 873484298 -1199209959 18
            1241579520 33603658 -1616969717</internalNodes>
          <leafValues>
            -5.7902759313583374e-001 4.9735468626022339e-001</leafValues></_>
        <_>
          <internalNodes>
            0 -1 104 268690352 1074255882 1179776 17403923 -788425183
            671746176 1342538369 692640490</internalNodes>
          <leafValues>
            -6.2320542335510254e-001 4.2074924707412720e-001</leafValues></_>
        <_>
          <internalNodes>
            0 -1 83 503445493 790691696 2147483637 2134474744 494829247
            -5 981387257 -1115695216</internalNodes>
          <leafValues>
            -5.1666325330734253e-001 5.6033509969711304e-001</leafValues></_>
        <_>
          <internalNodes>
            0 -1 6 -489167406 -805257214 16980 -603979760 -1065145726
            134971532 1350632018 -1069490173</internalNodes>
          <leafValues>
            -5.8201092481613159e-001 5.0498974323272705e-001</leafValues></_>
        <_>
          <internalNodes>
            0 -1 101 -716176581 808554900 1140850969 1476920321
            -2146811640 -134217695 -2004669810 -1064585185</internalNodes>
          <leafValues>
            -5.7660567760467529e-001 5.0411063432693481e-001</leafValues></_></weakClassifiers></_>
    <!-- stage 11 -->
    <_>
      <maxWeakCount>5</maxWeakCount>
      <stageThreshold>-4.7993531823158264e-001</stageThreshold>
      <weakClassifiers>
        <_>
          <internalNodes>
            0 -1 88 -1726376094 -1644085235 -2147384942 -2130640880
            -2004754728 -2139090928 76419170 1404029035</internalNodes>
          <leafValues>
            -5.5376344919204712e-001 5.0000000000000000e-001</leafValues></_>
        <_>
          <internalNodes>
            0 -1 28 -629150017 1485958779 2130694142 1524330223
            -588251779 1755164642 -436601121 -742177537</internalNodes>
          <leafValues>
            -4.2793530225753784e-001 6.1692708730697632e-001</leafValues></_>
        <_>
          <internalNodes>
            0 -1 59 2001162393 395510401 286457857 1392967683
            -1811332822 -83885943 -536706916 -616908278</internalNodes>
          <leafValues>
            -4.4515994191169739e-001 5.8402174711227417e-001</leafValues></_>
        <_>
          <internalNodes>
            0 -1 109 -645794014 89719525 1073858856 130793801 1434501141
            1145119234 -2117971436 861129095</internalNodes>
          <leafValues>
            -6.0948276519775391e-001 4.7066682577133179e-001</leafValues></_>
        <_>
          <internalNodes>
            0 -1 35 -1960009797 -673005840 -1342296199 2108714540
            -1347020810 -1092128785 -680561210 -581581691</internalNodes>
          <leafValues>
            -5.2653896808624268e-001 6.0386788845062256e-001</leafValues></_></weakClassifiers></_>
    <!-- stage 12 -->
    <_>
      <maxWeakCount>5</maxWeakCount>
      <stageThreshold>-9.4737267494201660e-001</stageThreshold>
      <weakClassifiers>
        <_>
          <internalNodes>
            0 -1 50 1560449240 353632278 134354200 -865992632 -528430998
            145424514 286818456 -82345570</internalNodes>
          <leafValues>
            -7.7037036418914795e-001 4.4152745604515076e-001</leafValues></_>
        <_>
          <internalNodes>
            0 -1 43 1465831670 1476919688 -2113908463 2015543574
            1208647851 -904920960 -1828159288 1406643291</internalNodes>
          <leafValues>
            -5.7980674505233765e-001 4.5611190795898438e-001</leafValues></_>
        <_>
          <internalNodes>
            0 -1 94 -1039957081 114689 687883267 -1627324414 -2121920375
            -938993536 -1565908975 1369680683</internalNodes>
          <leafValues>
            -6.0675418376922607e-001 5.0373840332031250e-001</leafValues></_>
        <_>
          <internalNodes>
            0 -1 9 -263207669 1753482375 -1811201508 -1005469414
            1225213963 -1069545983 1435476784 1629584066</internalNodes>
          <leafValues>
            -6.6939288377761841e-001 4.1858774423599243e-001</leafValues></_>
        <_>
          <internalNodes>
            0 -1 99 -113618595 2000752645 679580029 932267272
            -1073445836 -629080032 42477195 1091610846</internalNodes>
          <leafValues>
            -5.6886494159698486e-001 5.0646191835403442e-001</leafValues></_></weakClassifiers></_>
    <!-- stage 13 -->
    <_>
      <maxWeakCount>7</maxWeakCount>
      <stageThreshold>-3.3640763163566589e-001</stageThreshold>
      <weakClassifiers>
        <_>
          <internalNodes>
            0 -1 55 -8769 1609256876 -65537 -1549808003 -65558 -237572
            -276890114 -15540738</internalNodes>
          <leafValues>
            -3.6622390151023865e-001 6.1101549863815308e-001</leafValues></_>
        <_>
          <internalNodes>
            0 -1 27 -826643585 -839974929 -1644236821 -135532801
            -536870913 -16777217 -536870921 -847274497</internalNodes>
          <leafValues>
            -4.4057929515838623e-001 5.3757947683334351e-001</leafValues></_>
        <_>
          <internalNodes>
            0 -1 20 -61885261 -452688896 269552889 -2021002984
            1476432291 167985152 8593 -710831999</internalNodes>
          <leafValues>
            -4.9566340446472168e-001 5.1961916685104370e-001</leafValues></_>
        <_>
          <internalNodes>
            0 -1 30 -804268330 385880067 268517466 1342283779 814289288
            1762132616 805364376 -1012143997</internalNodes>
          <leafValues>
            -4.6384525299072266e-001 5.3802287578582764e-001</leafValues></_>
        <_>
          <internalNodes>
            0 -1 111 -579345586 405815376 1073938706 -1795124990
            -234761464 -100466688 -1052743672 541120562</internalNodes>
          <leafValues>
            -6.0991215705871582e-001 4.0292268991470337e-001</leafValues></_>
        <_>
          <internalNodes>
            0 -1 21 1865410510 -135528469 -1476403969 402188704
            1736244698 -1076430857 -1093341027 -856303497</internalNodes>
          <leafValues>
            -4.3669316172599792e-001 6.0305386781692505e-001</leafValues></_>
        <_>
          <internalNodes>
            0 -1 65 1013711547 1017462777 905592145 957923324 1342021483
            -134397953 -33685640 -847298574</internalNodes>
          <leafValues>
            -4.9172347784042358e-001 5.5781596899032593e-001</leafValues></_></weakClassifiers></_>
    <!-- stage 14 -->
    <_>
      <maxWeakCount>6</maxWeakCount>
      <stageThreshold>-2.4195235967636108e-001</stageThreshold>
      <weakClassifiers>
        <_>
          <internalNodes>
            0 -1 81 1567936508 -269165060 -1 -294916 1610415548 -4
            1069946879 -590371</internalNodes>
          <leafValues>
            -4.7169810533523560e-001 5.2923977375030518e-001</leafValues></_>
        <_>
          <internalNodes>
            0 -1 16 -1874755291 1363202068 269768109 2013298817
            -1864883019 -593362815 -532631389 2073174283</internalNodes>
          <leafValues>
            -5.7954853773117065e-001 4.3461614847183228e-001</leafValues></_>
        <_>
          <internalNodes>
            0 -1 52 -922625721 -192937721 -2004315949 273891601
            268470637 -200802048 142639626 1469514519</internalNodes>
          <leafValues>
            -5.7192480564117432e-001 4.3428215384483337e-001</leafValues></_>
        <_>
          <internalNodes>
            0 -1 7 -792337985 1074319616 286360586 -771210614
            -1592657589 -1407680382 -801111866 1157882274</internalNodes>
          <leafValues>
            -5.4400253295898438e-001 5.1224792003631592e-001</leafValues></_>
        <_>
          <internalNodes>
            0 -1 84 -1055352997 1909305937 -2145785773 353454521
            -1031766000 834764800 1117311112 823757326</internalNodes>
          <leafValues>
            -4.7911116480827332e-001 5.5761855840682983e-001</leafValues></_>
        <_>
          <internalNodes>
            0 -1 73 1350849267 -1321201527 335564883 -91879420
            1073809673 -91553375 269027466 201675521</internalNodes>
          <leafValues>
            -6.1697673797607422e-001 4.6883106231689453e-001</leafValues></_></weakClassifiers></_>
    <!-- stage 15 -->
    <_>
      <maxWeakCount>6</maxWeakCount>
      <stageThreshold>-1.2319809943437576e-001</stageThreshold>
      <weakClassifiers>
        <_>
          <internalNodes>
            0 -1 78 -805195396 -251625196 34178065 -1720933104
            -1602092644 -2010349440 1116381252 -878802808</internalNodes>
          <leafValues>
            -6.5448504686355591e-001 4.4485750794410706e-001</leafValues></_>
        <_>
          <internalNodes>
            0 -1 63 1599987679 1532067512 -66832 997416953 1314675966
            2145189626 -20030357 -677540645</internalNodes>
          <leafValues>
            -3.2773828506469727e-001 7.1415990591049194e-001</leafValues></_>
        <_>
          <internalNodes>
            0 -1 106 -675392789 2146922173 1073709055 -67445767
            -1663135812 -130 -1233127746 -150839745</internalNodes>
          <leafValues>
            -3.4865111112594604e-001 6.5090525150299072e-001</leafValues></_>
        <_>
          <internalNodes>
            0 -1 105 1359740769 100729026 1762202626 -1056751536
            1141549751 151093376 277414658 -1542764281</internalNodes>
          <leafValues>
            -6.1820995807647705e-001 4.0150880813598633e-001</leafValues></_>
        <_>
          <internalNodes>
            0 -1 113 -341974729 164226 536952836 675447296 1350836224
            285312128 -1606246400 1349841156</internalNodes>
          <leafValues>
            -7.5042724609375000e-001 3.7114709615707397e-001</leafValues></_>
        <_>
          <internalNodes>
            0 -1 57 1683225419 -541774232 -1900642370 1608609545
            1962266460 1072005110 -269189548 2110875460</internalNodes>
          <leafValues>
            -4.8701947927474976e-001 5.5703842639923096e-001</leafValues></_></weakClassifiers></_>
    <!-- stage 16 -->
    <_>
      <maxWeakCount>7</maxWeakCount>
      <stageThreshold>-5.6112056970596313e-001</stageThreshold>
      <weakClassifiers>
        <_>
          <internalNodes>
            0 -1 48 1082198534 -1069399845 -2147482351 -510431055
            1208074490 -2143092688 -2140102517 -611612631</internalNodes>
          <leafValues>
            -5.6851309537887573e-001 4.6666666865348816e-001</leafValues></_>
        <_>
          <internalNodes>
            0 -1 44 -1341067179 -693038848 269549593 304435216
            -2013261814 -234583920 -2139092600 -284170097</internalNodes>
          <leafValues>
            -5.2205473184585571e-001 4.5177376270294189e-001</leafValues></_>
        <_>
          <internalNodes>
            0 -1 39 -371086876 -555427356 -973103107 -1276447 1858045368
            -553714305 -1932733227 -933375845</internalNodes>
          <leafValues>
            -4.3131089210510254e-001 5.7573992013931274e-001</leafValues></_>
        <_>
          <internalNodes>
            0 -1 29 -605436457 -152130066 -285753652 1676606122
            -403210241 -1376923817 1356551492 1463219312</internalNodes>
          <leafValues>
            -4.2206481099128723e-001 6.0166776180267334e-001</leafValues></_>
        <_>
          <internalNodes>
            0 -1 96 -68019 2119974068 -360731138 2027945593 -134743092
            -276955265 -589906753 -28246221</internalNodes>
          <leafValues>
            -4.7924903035163879e-001 5.9624367952346802e-001</leafValues></_>
        <_>
          <internalNodes>
            0 -1 74 1108866233 50495752 285254681 2063880192 -1928846676
            947912712 -913661774 219105553</internalNodes>
          <leafValues>
            -6.2127780914306641e-001 4.5422264933586121e-001</leafValues></_>
        <_>
          <internalNodes>
            0 -1 23 -2086410873 -1409014528 2109521 1501878288
            -1874689916 1350730880 1074569361 -1645509119</internalNodes>
          <leafValues>
            -5.4939109086990356e-001 5.5824881792068481e-001</leafValues></_></weakClassifiers></_>
    <!-- stage 17 -->
    <_>
      <maxWeakCount>5</maxWeakCount>
      <stageThreshold>-4.5641028881072998e-001</stageThreshold>
      <weakClassifiers>
        <_>
          <internalNodes>
            0 -1 64 1853845247 402636799 -16843009 1659698815 1325141636
            -8454146 -823328780 -851456155</internalNodes>
          <leafValues>
            -3.9914163947105408e-001 5.4205608367919922e-001</leafValues></_>
        <_>
          <internalNodes>
            0 -1 86 1095983577 488737227 1074303405 1086767296
            -389361633 -937394167 -1316290557 1313713099</internalNodes>
          <leafValues>
            -5.2394896745681763e-001 4.4316282868385315e-001</leafValues></_>
        <_>
          <internalNodes>
            0 -1 95 318999993 -1031765880 1124073746 1399259160
            -1576891752 196992 92950633 -610024968</internalNodes>
          <leafValues>
            -5.5853271484375000e-001 4.4310468435287476e-001</leafValues></_>
        <_>
          <internalNodes>
            0 -1 3 -273699073 -536871426 -49153 1308405487 -1392627793
            -285220865 100622335 -336070145</internalNodes>
          <leafValues>
            -4.1621831059455872e-001 6.5295255184173584e-001</leafValues></_>
        <_>
          <internalNodes>
            0 -1 17 -1333529285 -284815238 1074855954 -247823552
            -2121594737 -1988034424 1342408066 -477715892</internalNodes>
          <leafValues>
            -4.6687817573547363e-001 5.9704452753067017e-001</leafValues></_></weakClassifiers></_>
    <!-- stage 18 -->
    <_>
      <maxWeakCount>7</maxWeakCount>
      <stageThreshold>-3.1051629781723022e-001</stageThreshold>
      <weakClassifiers>
        <_>
          <internalNodes>
            0 -1 66 2135293823 1058832248 -16843395 2137767581
            -539177222 -1630708263 -545653045 1593941130</internalNodes>
          <leafValues>
            -2.8500825166702271e-001 6.6866266727447510e-001</leafValues></_>
        <_>
          <internalNodes>
            0 -1 112 -2355 1966014447 -1427181582 720306149 -973101232
            2113880054 787541996 -1072562202</internalNodes>
          <leafValues>
            -3.8130089640617371e-001 5.5243355035781860e-001</leafValues></_>
        <_>
          <internalNodes>
            0 -1 68 -249921455 -782958575 285217061 352912272 1627423168
            -1701705208 671646376 136317106</internalNodes>
          <leafValues>
            -4.6678647398948669e-001 4.9753662943840027e-001</leafValues></_>
        <_>
          <internalNodes>
            0 -1 15 -333460957 956350720 268570688 1359151104
            -1861570424 -1476394877 33603584 -1056722256</internalNodes>
          <leafValues>
            -4.6964558959007263e-001 5.2754145860671997e-001</leafValues></_>
        <_>
          <internalNodes>
            0 -1 25 -2130698111 188879296 -2063576739 -720371184
            -1878949735 -1174232437 1879271450 -806287127</internalNodes>
          <leafValues>
            -4.9363750219345093e-001 5.0859051942825317e-001</leafValues></_>
        <_>
          <internalNodes>
            0 -1 91 68219647 -787480320 2162833 -503250804 -2101339990
            -2113929214 537919499 -972838647</internalNodes>
          <leafValues>
            -5.0899529457092285e-001 5.2792888879776001e-001</leafValues></_>
        <_>
          <internalNodes>
            0 -1 33 -1001182993 855736322 530519 998670872 1082196032
            -78495743 -2112772085 1073865030</internalNodes>
          <leafValues>
            -5.5687075853347778e-001 5.0105744600296021e-001</leafValues></_></weakClassifiers></_>
    <!-- stage 19 -->
    <_>
      <maxWeakCount>6</maxWeakCount>
      <stageThreshold>-9.3767732381820679e-001</stageThreshold>
      <weakClassifiers>
        <_>
          <internalNodes>
            0 -1 69 159957364 -1069539327 269254677 -1047461888
            -2008147516 1208123392 -2113101781 -1102019861</internalNodes>
          <leafValues>
            -6.8539327383041382e-001 4.1022592782974243e-001</leafValues></_>
        <_>
          <internalNodes>
            0 -1 47 -84410641 -612737859 -285540625 -266273028 -50340242
            -1362100379 -136847370 -78410665</internalNodes>
          <leafValues>
            -4.4440951943397522e-001 5.2445334196090698e-001</leafValues></_>
        <_>
          <internalNodes>
            0 -1 0 -810552465 1944776438 2147417855 -1074533014 -919553
            -2113543 1165350833 -275778479</internalNodes>
          <leafValues>
            -3.5241705179214478e-001 6.5397506952285767e-001</leafValues></_>
        <_>
          <internalNodes>
            0 -1 61 -109837292 -76833092 -1610711433 892301309 -67111611
            -23203841 -1319346706 -1400328642</internalNodes>
          <leafValues>
            -4.3879234790802002e-001 5.4941624402999878e-001</leafValues></_>
        <_>
          <internalNodes>
            0 -1 108 -156238121 -19546171 1862074157 1887240181
            931001412 -1115816066 -931893508 -194199555</internalNodes>
          <leafValues>
            -4.8774206638336182e-001 5.3411072492599487e-001</leafValues></_>
        <_>
          <internalNodes>
            0 -1 58 1356071832 -518242224 43075 1350897927 -771633014
            -1660846048 -2146989975 -1724353733</internalNodes>
          <leafValues>
            -6.1275082826614380e-001 4.2830029129981995e-001</leafValues></_></weakClassifiers></_>
    <!-- stage 20 -->
    <_>
      <maxWeakCount>5</maxWeakCount>
      <stageThreshold>-3.6506006121635437e-001</stageThreshold>
      <weakClassifiers>
        <_>
          <internalNodes>
            0 -1 71 -1874295076 1091600704 8388945 -1778384879 41978320
            -2138898288 32980 -1727053671</internalNodes>
          <leafValues>
            -5.3352767229080200e-001 4.5098039507865906e-001</leafValues></_>
        <_>
          <internalNodes>
            0 -1 107 -71831389 1468005683 -268501261 -138429605
            2088211386 -1084358671 -1749680710 -1230522957</internalNodes>
          <leafValues>
            -3.1365787982940674e-001 7.0511370897293091e-001</leafValues></_>
        <_>
          <internalNodes>
            0 -1 46 -470827142 2009131555 -16842754 -1332097284
            2012704620 1165934429 1744830187 -263723177</internalNodes>
          <leafValues>
            -4.5721897482872009e-001 5.3225857019424438e-001</leafValues></_>
        <_>
          <internalNodes>
            0 -1 14 -1508850865 1426653471 1092637187 -854564836
            -1442609238 -1870658544 -1308329967 -1761556341</internalNodes>
          <leafValues>
            -5.2359187602996826e-001 4.9301686882972717e-001</leafValues></_>
        <_>
          <internalNodes>
            0 -1 90 -2147397609 1436172674 1073774645 1267433561
            134289594 -116817600 17507485 86608066</internalNodes>
          <leafValues>
            -5.1104921102523804e-001 5.1854866743087769e-001</leafValues></_></weakClassifiers></_>
    <!-- stage 21 -->
    <_>
      <maxWeakCount>5</maxWeakCount>
      <stageThreshold>-4.1919577121734619e-001</stageThreshold>
      <weakClassifiers>
        <_>
          <internalNodes>
            0 -1 5 -380116583 1208655876 426304 -787480574 25289864
            -2147467264 1073741824 1091690516</internalNodes>
          <leafValues>
            -5.4354351758956909e-001 4.4258064031600952e-001</leafValues></_>
        <_>
          <internalNodes>
            0 -1 70 1042128509 1026422009 -2097293 -1100105991
            1589927132 -196609 1322736799 1605306079</internalNodes>
          <leafValues>
            -3.8393154740333557e-001 5.7876640558242798e-001</leafValues></_>
        <_>
          <internalNodes>
            0 -1 8 -50077057 -234005216 -1610579958 -783233024
            -593001957 -1197438976 -121197246 1350689858</internalNodes>
          <leafValues>
            -4.5284661650657654e-001 4.9812847375869751e-001</leafValues></_>
        <_>
          <internalNodes>
            0 -1 76 -217034740 -783280765 131342 1359926419 277086912
            -1465859958 -2145380278 -1291221165</internalNodes>
          <leafValues>
            -5.1621043682098389e-001 4.5791453123092651e-001</leafValues></_>
        <_>
          <internalNodes>
            0 -1 32 -16790969 493813502 -1895893452 -1191807128
            1937715023 -1904246921 1466889956 -503578626</internalNodes>
          <leafValues>
            -4.4776371121406555e-001 5.7025605440139771e-001</leafValues></_></weakClassifiers></_></stages>
  <features>
    <_>
      <rect>
        0 0 4 5</rect></_>
    <_>
      <rect>
        0 0 4 7</rect></_>
    <_>
      <rect>
        0 1 12 16</rect></_>
    <_>
      <rect>
        0 2 9 15</rect></_>
    <_>
      <rect>
        0 3 13 15</rect></_>
    <_>
      <rect>
        0 8 2 4</rect></_>
    <_>
      <rect>
        0 12 2 5</rect></_>
    <_>
      <rect>
        0 14 2 2</rect></_>
    <_>
      <rect>
        0 14 3 5</rect></_>
    <_>
      <rect>
        0 18 2 3</rect></_>
    <_>
      <rect>
        0 19 16 12</rect></_>
    <_>
      <rect>
        0 20 1 1</rect></_>
    <_>
      <rect>
        0 31 7 5</rect></_>
    <_>
      <rect>
        1 7 2 2</rect></_>
    <_>
      <rect>
        1 8 9 9</rect></_>
    <_>
      <rect>
        1 16 1 3</rect></_>
    <_>
      <rect>
        1 16 16 8</rect></_>
    <_>
      <rect>
        1 19 1 1</rect></_>
    <_>
      <rect>
        1 35 16 6</rect></_>
    <_>
      <rect>
        2 3 16 17</rect></_>
    <_>
      <rect>
        2 4 3 2</rect></_>
    <_>
      <rect>
        2 7 8 4</rect></_>
    <_>
      <rect>
        2 7 16 14</rect></_>
    <_>
      <rect>
        2 11 1 2</rect></_>
    <_>
      <rect>
        2 26 16 9</rect></_>
    <_>
      <rect>
        3 3 10 6</rect></_>
    <_>
      <rect>
        3 8 6 9</rect></_>
    <_>
      <rect>
        3 11 11 12</rect></_>
    <_>
      <rect>
        3 22 4 8</rect></_>
    <_>
      <rect>
        4 20 2 4</rect></_>
    <_>
      <rect>
        4 27 4 7</rect></_>
    <_>
      <rect>
        4 27 5 4</rect></_>
    <_>
      <rect>
        4 28 2 2</rect></_>
    <_>
      <rect>
        4 34 4 6</rect></_>
    <_>
      <rect>
        4 40 9 5</rect></_>
    <_>
      <rect>
        5 1 7 5</rect></_>
    <_>
      <rect>
        5 19 8 12</rect></_>
    <_>
      <rect>
        5 21 15 9</rect></_>
    <_>
      <rect>
        5 32 8 6</rect></_>
    <_>
      <rect>
        6 3 4 7</rect></_>
    <_>
      <rect>
        6 43 9 4</rect></_>
    <_>
      <rect>
        6 46 14 3</rect></_>
    <_>
      <rect>
        7 0 12 5</rect></_>
    <_>
      <rect>
        7 25 3 9</rect></_>
    <_>
      <rect>
        7 43 7 3</rect></_>
    <_>
      <rect>
        8 28 3 7</rect></_>
    <_>
      <rect>
        8 40 2 2</rect></_>
    <_>
      <rect>
        9 37 3 4</rect></_>
    <_>
      <rect>
        10 7 13 15</rect></_>
    <_>
      <rect>
        11 25 1 1</rect></_>
    <_>
      <rect>
        12 46 7 3</rect></_>
    <_>
      <rect>
        12 46 11 3</rect></_>
    <_>
      <rect>
        13 46 2 1</rect></_>
    <_>
      <rect>
        14 45 4 2</rect></_>
    <_>
      <rect>
        15 42 2 4</rect></_>
    <_>
      <rect>
        15 43 3 4</rect></_>
    <_>
      <rect>
        15 49 7 2</rect></_>
    <_>
      <rect>
        16 36 4 3</rect></_>
    <_>
      <rect>
        16 44 1 2</rect></_>
    <_>
      <rect>
        16 44 2 3</rect></_>
    <_>
      <rect>
        16 44 3 3</rect></_>
    <_>
      <rect>
        17 0 10 4</rect></_>
    <_>
      <rect>
        17 45 2 3</rect></_>
    <_>
      <rect>
        18 44 4 3</rect></_>
    <_>
      <rect>
        18 49 3 1</rect></_>
    <_>
      <rect>
        19 29 5 4</rect></_>
    <_>
      <rect>
        19 41 5 4</rect></_>
    <_>
      <rect>
        19 49 3 2</rect></_>
    <_>
      <rect>
        20 0 7 3</rect></_>
    <_>
      <rect>
        20 24 8 10</rect></_>
    <_>
      <rect>
        20 45 3 2</rect></_>
    <_>
      <rect>
        20 45 5 3</rect></_>
    <_>
      <rect>
        20 46 4 3</rect></_>
    <_>
      <rect>
        20 47 2 1</rect></_>
    <_>
      <rect>
        21 43 5 3</rect></_>
    <_>
      <rect>
        21 49 3 2</rect></_>
    <_>
      <rect>
        24 0 8 8</rect></_>
    <_>
      <rect>
        24 25 6 10</rect></_>
    <_>
      <rect>
        24 49 3 2</rect></_>
    <_>
      <rect>
        25 40 8 5</rect></_>
    <_>
      <rect>
        26 26 7 9</rect></_>
    <_>
      <rect>
        27 46 2 3</rect></_>
    <_>
      <rect>
        27 46 4 2</rect></_>
    <_>
      <rect>
        28 47 2 2</rect></_>
    <_>
      <rect>
        29 7 5 5</rect></_>
    <_>
      <rect>
        29 9 7 12</rect></_>
    <_>
      <rect>
        29 37 1 1</rect></_>
    <_>
      <rect>
        29 41 7 4</rect></_>
    <_>
      <rect>
        29 42 5 3</rect></_>
    <_>
      <rect>
        29 45 4 2</rect></_>
    <_>
      <rect>
        31 42 1 1</rect></_>
    <_>
      <rect>
        31 45 2 3</rect></_>
    <_>
      <rect>
        32 5 6 11</rect></_>
    <_>
      <rect>
        32 33 6 5</rect></_>
    <_>
      <rect>
        32 39 6 4</rect></_>
    <_>
      <rect>
        32 43 2 3</rect></_>
    <_>
      <rect>
        33 0 5 4</rect></_>
    <_>
      <rect>
        33 9 5 6</rect></_>
    <_>
      <rect>
        33 46 2 1</rect></_>
    <_>
      <rect>
        35 1 2 2</rect></_>
    <_>
      <rect>
        35 43 2 2</rect></_>
    <_>
      <rect>
        36 1 4 2</rect></_>
    <_>
      <rect>
        36 26 3 9</rect></_>
    <_>
      <rect>
        36 42 3 3</rect></_>
    <_>
      <rect>
        37 21 3 9</rect></_>
    <_>
      <rect>
        37 37 2 2</rect></_>
    <_>
      <rect>
        38 0 2 3</rect></_>
    <_>
      <rect>
        38 23 3 7</rect></_>
    <_>
      <rect>
        41 5 3 3</rect></_>
    <_>
      <rect>
        41 21 3 5</rect></_>
    <_>
      <rect>
        43 2 2 4</rect></_>
    <_>
      <rect>
        44 8 2 5</rect></_>
    <_>
      <rect>
        47 16 1 2</rect></_>
    <_>
      <rect>
        47 21 1 2</rect></_></features></cascade>
</opencv_storage>
